themselves 0.64757 -0.88334 0.34135 -1.1426 0.61266 0.14531 -0.39535 0.40737 -0.86006 -0.027515 0.055264 0.34975 -0.15737 0.19496 -0.050624 0.39901 0.69418 -0.29575 0.24179 -0.94232 0.080787 0.48024 0.83972 0.50908 0.067574 -1.2896 -0.67743 -0.45833 0.56853 -1.0018 3.0505 1.0944 -0.35772 -1.1315 -0.26353 0.4984 -0.22614 0.022794 -0.62991 -0.38057 -0.2151 -0.77651 0.4204 0.84677 0.34003 0.049138 -0.90712 -0.56078 -0.14028 -0.69459
firm 0.24036 -0.38171 0.21056 0.8893 0.4355 0.21804 -1.1048 -0.17282 0.14027 -0.17494 -0.061331 0.44361 -0.95753 -0.45299 -0.69407 0.051592 0.10564 0.12575 0.063482 -0.63675 1.6124 0.53948 -0.53205 -0.72427 -1.0112 -1.3614 -0.069348 -0.36017 -0.37007 0.33496 2.6422 -0.67939 0.29943 0.015705 -0.31135 -1.153 -1.0361 0.34499 1.1163 -0.68342 0.83751 -0.64095 0.27233 0.17424 0.18893 -0.17272 -0.77669 0.64772 -0.10046 0.7096
injured 0.52416 -0.33801 1.0077 -0.43848 0.31885 0.55902 -0.91603 1.2507 0.16805 -0.86022 0.42203 -1.0721 -1.0031 0.11272 1.0552 -0.47766 -0.27237 -0.098943 -1.4444 0.033321 -1.486 1.3295 -0.12324 0.040102 0.16154 -1.1754 1.1626 -0.11181 0.02573 -0.20852 2.6388 0.52297 0.8825 0.29323 0.87122 1.4139 1.64 -0.70153 0.84688 0.77774 -0.5402 0.9915 0.49535 -0.31262 0.97857 -0.12858 -0.686 -0.0092182 0.15171 -0.5814
itself 1.0281 -0.37128 -0.27877 -0.33598 0.52308 0.16672 0.21394 -0.11594 0.38081 0.18088 0.34514 0.098415 -0.52535 -0.080943 -0.24892 0.74963 0.29117 0.41179 0.10292 0.22852 0.28474 -0.30247 -0.15525 0.40033 0.11593 -1.953 -0.83514 0.57942 0.4217 -0.3606 3.1485 -0.35304 -0.40325 -0.75346 -0.87134 -0.14295 -0.12188 0.020658 -0.47049 -0.61693 0.2436 -0.87514 -0.27564 -0.060761 -0.67274 0.51781 -0.10929 -0.22176 0.0079973 -0.32842
governor -0.21253 -0.75435 0.094368 0.095026 0.68 -0.28077 -0.59397 0.72911 -0.58859 -1.1119 -0.80573 0.12563 0.82464 -0.89265 0.021317 0.14713 -0.11291 -0.25379 0.15137 0.45707 -0.016772 -0.89628 -0.058417 -0.46347 0.34444 -2.7354 0.19521 -0.027751 -0.85062 0.033583 1.7297 -0.30365 -0.85606 -0.77663 0.55297 -0.38174 -0.42086 0.39277 -0.13629 -0.17497 -1.2703 1.9003 -1.1917 -1.0966 -1.124 -0.22946 -1.0316 -0.32285 0.88847 0.87791
movie 0.30824 0.17223 -0.23339 0.023105 0.28522 0.23076 -0.41048 -1.0035 -0.2072 1.4327 -0.80684 0.68954 -0.43648 1.1069 1.6107 -0.31966 0.47744 0.79395 -0.84374 0.064509 0.90251 0.78609 0.29699 0.76057 0.433 -1.5032 -1.6423 0.30256 0.30771 -0.87057 2.4782 -0.025852 0.5013 -0.38593 -0.15633 0.45522 0.04901 -0.42599 -0.86402 -1.3076 -0.29576 1.209 -0.3127 -0.72462 -0.80801 0.082667 0.26738 -0.98177 -0.32147 0.99823
range 0.6334 0.76075 0.2846 -0.22137 -0.23531 0.10778 -0.18562 -1.1155 0.61539 0.22784 0.0094681 -0.62783 0.67742 -0.45743 -0.76741 0.21635 0.46559 0.058398 -1.3077 -0.70433 -0.1526 -0.11927 -0.052904 -0.20921 -0.078167 -0.71893 0.11541 0.17708 -0.041183 -0.12012 3.3763 -0.11924 0.30796 -0.12514 1.2174 -0.12306 -0.306 0.29233 -0.80364 0.15093 0.29759 0.54568 0.9153 0.1711 -0.11702 -0.38183 1.3027 0.53776 -0.61348 -0.0018729
cross 0.34047 0.98554 -0.51013 -0.32838 0.19557 -0.00030261 -0.51588 -0.0040674 1.0142 -0.84201 0.24186 0.076132 -0.65614 -0.041135 -0.41204 -0.42122 0.83162 -0.75462 -0.51169 -0.37273 -0.12924 0.015459 -0.38076 -0.086069 -0.096603 -1.373 0.91499 0.20725 -0.34279 -0.67425 2.8726 0.39156 -0.47856 -0.017865 -0.3887 0.31548 -0.028368 -0.11992 -0.44877 0.40369 0.499 0.15104 0.44179 -0.44458 0.22357 -0.80658 0.51544 -0.37369 -0.17088 -1.0643
track -0.5766 0.69654 0.49146 0.38409 -1.0432 -0.12099 -0.90199 0.2188 0.75566 -0.045751 0.15682 -0.28909 -1.0413 0.36776 0.32386 -0.059158 0.40947 0.44467 -0.33767 -1.1014 0.088749 -0.030303 0.081839 0.70906 0.62805 -1.0229 -0.3072 0.37111 0.13485 -0.45636 3.1465 -0.38698 -0.071594 -0.11769 0.3742 -0.13576 0.85811 0.15304 -0.74506 -0.53697 -0.30526 -0.77774 -0.093377 -0.059172 -0.14357 -0.70415 0.68059 -0.56472 -0.011936 -0.11661
programs 0.04501 0.3076 0.37082 -0.61291 -1.0105 0.17725 -0.82357 -1.4555 0.90333 0.44444 -0.19924 0.040644 0.53004 0.1684 0.046462 -0.27628 -0.18192 0.92389 0.92426 0.34468 0.60439 0.14596 0.032791 0.20394 -0.36158 -1.1259 0.25133 -0.91864 -0.12857 -0.51871 3.691 0.75809 -0.76885 -1.2806 -0.11082 1.017 0.11534 0.3173 -0.3699 -0.53978 -0.32115 -0.58336 0.071154 0.52191 -0.18888 -0.15041 0.2455 1.1311 -0.59377 1.0676
1995 -0.42013 0.14077 0.11525 0.19143 -0.17155 0.47053 -0.90174 -0.63595 -0.13339 0.09823 0.26868 -0.59399 -0.91593 -0.36461 1.5413 -0.25208 -0.49494 0.076746 -1.048 0.70132 0.62533 -0.12875 0.24516 -0.53421 -0.87542 -1.1313 -0.20717 -0.36799 -0.35307 0.26924 2.4909 -0.25128 -0.25658 -0.1475 0.049236 -0.44873 0.36336 0.05797 0.16746 -0.5586 -0.79711 -0.3276 0.1698 -0.87557 -0.67899 0.080158 -0.43217 0.011149 -0.33875 0.066753
forced 0.45948 -0.83214 0.25476 -0.71577 -0.72424 0.22032 -0.54535 1.1399 -0.49644 -0.39978 0.24677 0.22717 -0.38233 -0.4556 0.85199 0.30928 -0.18325 -0.6004 -0.35802 -0.37242 0.084188 -0.11378 -0.2802 -0.24888 -0.11702 -1.814 0.62056 -0.58497 0.64899 0.17487 2.8313 0.51153 -0.57119 0.045014 -0.2601 0.55247 0.1622 -0.39636 0.24816 -0.10749 -0.57996 0.27654 0.34277 0.30159 0.069926 -0.41424 -0.35395 -0.479 -0.25559 -0.53686
includes 0.38638 1.1906 -0.4344 0.61551 -0.047201 0.46344 -0.75614 -1.2006 0.56059 -0.20748 -0.60511 -0.20593 0.55681 0.12262 -0.011694 -0.44974 0.033038 0.15191 0.02849 -0.40473 0.23066 -0.19968 -0.4154 0.32774 -0.84981 -0.38282 -0.42357 -0.15588 -0.57379 -0.3143 3.3325 -0.33302 -0.030412 -0.15434 0.60158 0.58352 0.14429 -0.11708 -0.35851 0.055946 0.22185 0.44481 0.26799 -0.12774 -0.15297 0.4947 -0.011512 0.16033 -0.50218 0.29985
difficult 0.79714 -0.28728 -0.12684 -0.17607 0.036611 0.056204 -0.020007 0.67333 -0.073412 -0.092013 -0.25664 0.19364 -0.52409 0.18205 0.48059 0.53885 0.86592 -0.46622 0.36862 -0.87133 -0.50184 0.16397 0.053107 0.16469 1.1274 -1.3633 -0.57442 -0.10208 0.82635 0.16455 3.4596 0.13084 -0.13098 -0.72667 0.40003 0.021167 -0.19415 0.8849 -0.25249 -0.44326 -0.67596 -0.14726 0.58784 0.55577 0.035666 -0.048131 0.44995 0.51419 0.18592 0.45874
produced 0.20207 0.030575 0.064833 0.23956 -0.45257 1.0257 -0.87466 -0.96056 0.15416 1.062 0.56549 0.28536 -0.16883 0.064261 0.79088 -0.44794 0.35139 0.62762 -1.0049 -0.74991 0.69915 -0.42151 1.0638 -0.34236 -0.059111 -0.34473 -0.77257 0.079579 -0.031375 0.011023 2.7899 -0.92284 0.56877 -0.47829 0.24375 0.28706 0.27508 0.63015 -0.44487 -0.044109 0.25398 0.29344 -0.3874 -1.1068 0.09234 0.39169 -0.4572 -0.29693 -0.64359 0.14795
wall 0.26382 0.32453 0.74185 -0.37095 0.65957 -0.49222 -0.55538 -0.23779 -0.44918 -0.12702 -0.86794 -0.4006 -0.80488 0.48755 -0.18839 0.53307 -0.23213 -1.2418 -0.34996 -0.80586 0.65294 -0.49259 -0.8745 -0.81071 -0.087246 -1.2377 -0.65882 1.1209 0.13363 -0.23701 3.0263 -0.71435 1.4986 -0.033124 -1.0149 -0.15854 -0.040294 -0.17169 0.58463 -0.63653 -0.062352 -0.078485 -0.16274 0.5391 0.78765 -0.095975 0.30811 -0.77773 0.16744 -0.81749
rebels 0.97544 -1.3552 0.81334 -0.25173 -0.094993 -0.23909 -0.39335 0.69578 -0.72111 -0.49985 -0.15579 -1.3651 -0.72028 -0.74392 -0.30841 -0.36751 0.52945 -0.094488 0.012337 0.49006 -0.72892 1.2771 0.85648 -0.12108 -0.83012 -1.2613 0.398 -0.38801 0.40614 0.11191 3.035 -0.3378 -2.1076 0.41128 0.43933 0.49508 -0.81548 -1.5559 -0.91451 0.13571 -0.46371 -0.034441 0.263 -1.2457 0.41286 -0.92483 -0.75111 0.51311 -0.45795 -1.7127
income -0.18491 0.34241 0.99048 -0.87677 0.84917 0.81272 -0.36565 -1.148 0.29205 0.027584 -0.013341 -0.41212 0.95991 -1.7766 0.67085 0.00080598 0.080372 -0.12108 0.71048 -0.18657 0.64084 -1.0246 -0.22366 -0.23096 -1.1214 -0.69074 -0.37684 -0.67437 0.44508 0.72073 3.2401 1.1784 1.0337 0.078705 0.20027 -0.66987 -0.84243 0.061069 0.68079 -0.77219 -0.74123 -0.075468 0.67195 0.7701 -1.4951 -1.2984 -0.70593 0.49759 0.60729 0.80245
corp. 0.37461 0.072237 1.4329 2.2352 -0.21833 0.21995 -1.2159 -0.52321 0.14161 0.39704 0.41319 0.48573 -0.65494 -0.31698 -1.0699 0.969 -1.6605 0.76947 -0.34551 -0.76091 1.5412 0.28419 -0.93911 -1.1568 -1.0302 -1.3388 -0.29205 -0.34317 -0.5333 -0.50249 2.3411 -0.38418 0.99501 0.50104 0.40354 -2.1408 -0.83569 -0.57048 1.2876 -0.5788 0.16576 -0.37301 0.27917 0.0093195 0.038252 0.86767 -0.77604 0.50896 -0.56646 0.67938
chance 0.20291 0.18563 0.28683 -0.1999 0.82266 -0.1036 -0.52124 1.1258 0.16914 0.70616 -0.11666 -0.087966 -0.65555 0.12769 0.57949 0.16548 1.1873 -0.86613 -0.58879 -0.54778 -0.47461 0.18641 0.040801 -0.10423 0.67003 -1.6063 0.028459 -0.3755 0.47073 -0.60903 2.8377 1.236 -0.8572 -0.18284 0.19663 -0.15048 0.051983 0.91864 0.13361 -1.1994 -0.25596 -0.081271 -0.18416 0.23486 -0.31326 0.29756 0.18222 0.075321 0.0563 0.022005
elected -0.77998 -0.069601 0.050275 -0.80286 0.64383 0.19415 -0.31318 0.46696 -1.2466 -1.1845 -0.03205 0.045509 0.15273 0.27541 -0.12616 -0.056141 0.16417 0.099531 0.30474 0.086854 -0.00034491 -0.35185 0.73589 0.17506 -0.5117 -1.7275 0.30728 -1.0252 -1.4789 0.9823 2.1224 0.042598 -1.7079 -0.97602 0.20096 -0.58842 0.35012 0.55528 0.057192 -0.32023 -1.1935 0.32652 -0.96545 -0.14734 -1.9532 0.56545 -1.6795 -0.80374 0.42385 -0.035514
23 -0.43882 0.49919 0.79575 0.0051386 0.2457 0.35958 -0.82657 -0.22036 -0.47265 -0.525 -0.15811 -0.72713 -0.52931 -0.26863 0.87183 -0.784 -0.9003 -0.43504 -1.6645 0.84132 0.45458 0.20199 1.2568 -0.18618 -0.71218 -0.61936 0.77318 -0.85526 0.057674 0.14883 2.7182 -0.030892 -0.28847 -0.021103 0.85423 -0.35418 0.69799 0.12076 0.39699 0.38994 -0.50913 -0.27956 0.73194 -0.77458 -0.7367 0.51104 -0.59339 -0.66733 0.37356 0.13662
reach 0.36279 0.71732 1.1818 0.061713 0.2001 -0.39 -0.18186 0.6298 0.36646 -0.019654 -0.11466 -0.76819 -0.086181 -0.14782 0.38544 0.4907 0.78895 -0.57657 -0.44039 -0.35737 -0.16669 0.083193 0.22002 0.11741 0.59303 -0.81787 0.42138 -0.37836 0.2899 -0.24902 3.2313 0.76403 -0.19485 0.15516 0.14373 -0.68067 -0.065159 0.28385 0.011223 -0.72018 -0.21715 -0.47181 1.0406 -0.27062 -0.54846 0.2153 0.35283 -0.060723 -0.55183 -0.17934
adding 0.46581 0.05208 0.29423 0.30861 0.6267 -0.20534 0.056781 -0.042381 -0.13931 -0.17365 0.14445 -0.015304 -0.18439 -0.35211 0.4849 0.28102 0.037451 -0.21563 0.43605 -0.79717 0.33399 0.34952 0.58565 -0.50881 0.36011 -0.98802 0.23281 0.29379 0.17581 0.11384 3.3999 0.28539 -0.093991 -0.00095264 0.03425 -0.15511 0.18113 0.20979 -0.018603 0.41173 0.074726 0.25754 0.25686 -0.35668 0.61335 -0.19963 -0.46978 0.87481 0.34349 0.25803
species 1.4672 0.39764 -0.94298 0.41471 0.82278 1.2419 -0.37527 -1.5228 1.1145 -0.8094 0.62779 1.063 2.2953 -0.26211 0.39073 -0.22501 1.0696 0.19772 -1.4817 -0.48166 -2.4244 -1.5815 1.6424 0.038169 0.76395 0.15354 0.05712 0.16787 -0.13493 0.082136 2.7263 -1.3228 0.23553 -0.62482 0.0037019 -0.50407 -0.29876 -0.60393 -0.87564 -0.4559 -1.0455 -1.0702 1.2366 0.46486 0.72205 0.51146 -0.34413 -0.63439 -0.12457 0.054389
wants 0.21506 0.082789 0.50305 0.14449 0.75241 -0.076578 -0.36763 0.22073 -0.0089579 0.11305 0.13228 0.54929 -0.48966 0.001774 0.7383 1.1322 0.8989 0.18867 0.91978 -0.31741 -0.2393 0.30403 -0.48557 0.27211 0.1087 -2.3666 0.24186 -0.12609 0.20699 -0.55422 2.5892 0.59948 -1.4281 0.20113 -0.35084 -0.58594 -0.13401 -0.057173 0.049225 -0.87229 0.015029 0.3324 0.22797 -0.35745 -0.17609 0.16492 -0.43823 0.36627 -0.19055 0.71889
finished -1.1949 0.053218 0.0030949 0.49563 0.57818 0.042034 -1.2279 0.25836 -0.33761 -0.39673 0.079452 -0.89202 -1.4982 -0.058857 0.71391 -0.67704 0.2267 -0.57716 -1.5764 -0.45055 0.0014016 0.012867 0.46676 -0.39326 0.37497 -0.52088 0.36526 -0.25051 -0.20507 -0.51208 2.3764 0.40081 0.061953 0.51025 0.70958 -0.31011 0.41574 1.9773 -0.027932 -0.46308 -0.60173 -0.9249 0.12924 -0.47676 -0.30161 0.14408 0.46172 -0.55003 0.41548 -0.34975
rise 0.044809 0.063362 0.98837 -0.67726 0.43238 0.028154 -0.23712 -0.76836 -0.1495 0.67227 0.061665 -0.75608 -0.070184 -0.47797 0.63319 0.57105 -0.26784 -0.77291 -0.67165 -0.36772 0.62695 -0.89525 -0.33233 -0.64366 -0.045985 -0.95631 -0.72466 0.025314 0.41928 1.4533 3.1465 0.34773 0.96378 0.12541 -0.15013 -1.0811 -0.79748 -0.52166 0.26578 -0.39074 -1.1211 0.13213 0.21771 -0.30471 0.29063 -0.25495 0.25305 -0.063159 0.448 -0.41928
killing 1.0237 -0.4369 0.6595 -0.29474 1.0999 0.86642 -0.12342 0.42633 0.42395 -0.13249 -0.55087 -1.4869 -0.52309 7.718e-05 0.6359 -0.82641 0.026151 0.52779 -1.2764 0.84292 -0.090041 1.381 0.15569 0.25089 -0.10471 -2.0523 0.1674 -0.14726 0.83552 -0.081661 1.9294 -0.30996 -0.69117 -0.25524 0.50992 0.39704 0.32064 -1.1218 0.13687 1.0711 -0.98497 0.60641 0.74692 -0.5949 0.91104 -0.27812 -1.08 -0.40687 0.70706 -0.58737
spain 1.1595 0.21344 -0.36298 1.0122 -0.18473 -0.30199 -0.35055 0.8532 -0.71617 0.35008 1.1401 -0.58245 -0.33837 -0.36144 1.1036 -0.85338 -0.37948 -1.2075 -0.44249 0.10017 -1.0162 -0.76619 -0.6012 0.76406 -0.20989 -1.0587 0.4871 -0.63722 -0.35631 0.30415 2.6428 0.52948 -0.64095 0.11115 -0.44187 -0.54406 -0.67595 0.69745 -0.37146 -0.19252 0.54152 0.29873 1.4091 -1.291 -0.57823 0.52369 -0.44592 -0.61992 0.56161 -0.94449
joined -0.41022 0.014266 -0.2916 -0.37862 -0.28519 0.050711 -1.4538 0.51936 -0.92067 -0.78855 0.56038 0.24635 -0.85139 -0.052399 -0.41794 -0.51272 -0.0010679 0.31711 -0.79727 0.29399 0.34643 0.27709 0.39101 0.28832 -0.88024 -1.2874 0.60719 -0.71949 -1.2526 -0.032727 2.3104 0.33736 -0.3352 -0.41658 -0.15113 -0.17586 -0.14002 -0.065949 -0.082406 -0.20707 0.13021 -0.12528 -0.52263 -0.84746 0.060975 0.10301 -0.91196 -0.78798 -0.75317 -0.12795
italian 1.3249 -0.72295 -1.4014 -0.038929 0.31079 -0.029466 -0.73726 -0.26476 -1.5154 0.17862 0.90742 -0.47018 -0.19712 0.51508 0.97645 -1.7018 -0.68926 0.72521 -0.55985 -0.15008 -0.3136 0.11762 -1.0012 1.1083 -0.21998 -1.2775 -0.17973 -0.10399 -1.207 0.76172 2.7922 -0.23252 -0.46951 0.66419 -0.29245 0.41382 -0.40453 1.0008 -0.33376 -0.51774 0.94343 0.41602 1.1146 -0.93192 0.32985 0.22213 -0.4394 0.15883 0.8059 -0.72778
language -0.5799 -0.1101 -1.1557 -0.0029906 -0.20613 0.45289 -0.16671 -1.0382 -0.99241 0.39884 0.5923 0.2299 1.5213 -0.17764 -0.29726 -0.39235 -0.78471 0.15594 0.69077 0.59537 -0.4434 0.53514 0.32853 1.2437 1.2972 -1.3878 -1.0925 -0.40925 -0.56971 -0.34656 3.7163 -1.0489 -0.46708 -0.44739 0.00623 0.019649 -0.40161 -0.62913 -0.82506 0.45591 0.82626 0.57091 0.21199 0.46865 -0.60027 0.2992 0.67944 1.4238 -0.032152 -0.12603
rest 0.48021 0.052461 -0.075499 -0.49294 0.56293 -0.13394 -0.6687 0.57151 -0.12299 -0.41295 0.21995 -0.012016 -0.2464 -0.21704 0.49805 0.52421 0.19902 -0.14816 -0.22035 -0.20401 -0.22217 0.1369 0.32133 0.2509 0.17578 -1.1599 -0.047711 0.23753 0.6222 -0.27197 3.3579 0.66388 0.054773 0.047149 0.081288 0.12085 0.062961 0.36136 0.11847 -0.28224 -0.53443 -0.24501 0.16648 0.21954 -0.6158 0.28791 -0.13205 -0.37609 -0.47475 -0.16401
serious 0.62999 0.26082 -0.50013 0.060337 -0.35979 1.1345 0.59982 0.67181 0.42182 0.17256 -0.32658 -0.075708 -0.90533 -0.2038 0.90723 -0.15516 0.23273 -0.037594 -0.040542 -0.24925 -0.49792 0.45037 0.075325 -0.21659 0.55145 -1.9198 -0.44356 0.13306 0.68516 0.80599 3.2151 0.33437 0.33525 -1.177 -0.24061 0.42343 0.13495 -0.15265 0.0010865 -0.24153 -0.77736 0.24175 0.23548 0.50138 0.78161 -0.028669 -0.34097 1.0458 0.32184 0.22979
paris 0.76989 1.181 -1.1299 -0.74725 -0.5969 -1.0518 -0.46552 0.27009 -0.99243 -0.04864 0.28642 -0.75261 -1.0566 -0.19205 0.572 -0.24391 -0.36054 -0.70876 -0.91951 -0.27024 1.5131 1.0313 -0.55713 0.52952 -0.71494 -1.0949 -0.60565 0.31329 -0.44488 0.55915 2.1429 0.43389 -0.5529 -0.24261 -0.43679 -0.96014 0.25828 0.79385 0.37132 0.49623 0.84359 -0.25875 1.5616 -1.1199 0.091676 0.076675 -0.45084 -0.86104 0.97599 -0.35615
tournament -0.88953 0.63058 -0.82473 1.7096 -0.44217 -0.64059 -0.062663 1.2849 -0.015872 -0.34241 0.183 -1.0086 -1.2333 0.11335 1.7202 0.010418 0.66763 0.14544 -1.7312 -0.13564 -0.59173 -0.30289 0.24262 0.40973 -0.25839 -0.97564 -0.26657 -0.40007 -1.1186 -0.49614 2.5761 1.0775 0.0091295 0.45583 0.32428 0.10288 0.72513 1.4971 -0.43629 -1.7964 -0.5283 -0.77145 0.15017 0.43971 -0.16645 0.42542 0.35469 -0.098881 -0.58181 -0.096291
officers 0.17061 -0.8861 0.46261 -0.85139 0.84165 -0.74005 -0.00085043 0.60435 -0.53218 -1.8389 -0.069228 -0.35017 -0.25133 -0.14641 0.0001466 -1.0045 -0.71136 0.49728 -0.5584 -1.0552 0.18729 0.87214 0.28528 -0.066598 -1.154 -1.9567 0.20909 -0.49264 -0.32521 -0.26837 2.592 0.28145 -0.48766 -1.5415 0.67767 1.0561 0.41882 -0.86797 -0.12815 0.59035 -0.34157 0.4006 0.99477 0.33825 0.298 -1.2398 -0.66031 0.17128 -0.012229 -0.25675
inside 0.70604 0.11939 0.78016 -0.24035 0.89127 -0.45407 -0.52973 0.12007 0.28835 -0.47028 -0.31489 -0.6692 -0.48706 0.74107 0.10136 0.47167 0.21224 0.027707 -0.47647 -0.45291 0.054675 0.57616 0.042375 0.27103 -0.16695 -1.5043 0.093798 1.0818 0.8095 -0.6694 3.015 -0.27475 -0.19294 -0.37959 -0.32027 1.1504 0.19442 -0.00019166 0.29163 0.30281 0.44064 0.36902 -0.18898 0.4952 0.3596 0.13518 0.13166 -0.75824 -0.24049 -1.1034
scheduled 0.95434 0.6901 -0.23293 0.92211 -0.35873 -0.6997 -0.66925 0.71885 -0.15645 -0.81677 -0.41213 -0.58001 -0.24655 0.74914 1.3316 0.38915 -0.80517 -0.42951 -0.68799 -0.2121 1.2334 -0.20651 0.44537 0.017229 -0.30703 -1.0111 0.92749 -0.2191 -0.69433 0.11513 2.7985 0.45925 -1.4564 -0.063297 0.53304 -0.53148 1.1992 0.35242 -0.61596 0.15614 -0.91503 0.046878 -0.16621 -0.34955 -0.1821 0.37198 -0.0001671 0.15565 -0.4622 0.55851
immediately 0.7172 -0.50492 0.21984 -0.30208 0.19903 -0.083179 -0.58772 1.1666 -0.29177 -0.5886 0.27334 0.19478 -0.33608 -0.38698 0.59427 0.54657 -0.40463 -0.55764 -0.22545 -0.49183 0.41985 0.27288 0.46812 -0.13985 0.21151 -1.815 0.45912 0.33882 0.12157 -0.33507 2.9047 -0.13361 -0.72852 -0.48285 -0.047323 -0.1808 0.71836 -0.20453 -0.10711 -0.048934 0.037972 -0.010714 -0.24383 -0.32205 0.031772 -0.26141 -0.45491 0.15996 0.10173 -0.22334
increased 0.056967 0.036951 0.8027 -0.60235 -0.15719 0.6519 0.15744 -0.7587 0.81027 0.37264 0.81025 -0.68912 0.12498 -1.1833 0.18283 0.19986 -0.48307 -0.31669 -0.4739 -0.54838 0.56868 -0.73739 0.087191 -0.75855 -0.62431 -0.82797 0.39979 -0.31445 0.4165 1.3801 3.65 1.0065 0.92891 -0.59157 0.098898 -0.57141 -0.32251 -0.027871 -0.020106 0.22017 -0.69621 0.15183 0.35161 -0.19007 -0.15439 -0.59024 -0.16544 0.29957 -0.13177 0.071388
brown -0.88497 0.71685 -0.40379 -0.10698 0.81457 1.0258 -1.2698 -0.49382 -0.27839 -0.92251 -0.49409 0.78942 -0.20066 -0.057371 0.060682 0.30746 0.13441 -0.49376 -0.54788 -0.81912 -0.45394 0.52098 1.0325 -0.8584 -0.65848 -1.2736 0.23616 1.0486 0.18442 -0.3901 2.1385 -0.45301 -0.16911 -0.46737 0.15938 -0.095071 -0.26512 -0.056479 0.63849 -1.0494 0.037507 0.76434 -0.6412 -0.59594 0.46589 0.31494 -0.34072 -0.59167 -0.31057 0.73274
remained 0.23582 -0.24956 0.14662 -0.56996 0.54062 -0.23273 -0.8768 0.81562 -0.61935 -0.5629 0.49728 -0.50413 -0.43919 -0.15393 0.069892 0.40075 -0.45686 -0.2831 -0.3394 0.13865 -0.12553 0.14379 0.11419 -0.065243 -0.16072 -1.0592 0.23094 0.55781 0.31823 1.2504 2.9911 -0.72078 1.1014 -0.69375 0.26202 -0.2519 0.072549 0.38288 -0.56661 -0.46178 -0.60421 -0.57835 0.31964 0.040607 -0.50166 -0.01079 -0.95136 -0.42311 -0.071529 -0.47844
parts 0.63307 -0.59255 -0.062343 0.23727 -0.36907 0.83075 -0.38741 -0.024667 0.28573 -0.31993 0.37021 -0.49516 0.40251 -0.33222 -0.20961 0.73541 -0.28014 0.57645 0.16505 -0.55541 0.46164 -0.3413 -0.096034 0.31926 -0.036934 -1.103 -0.86754 0.53285 0.64876 -0.45618 3.564 -0.46066 0.62298 -0.16939 0.61617 0.45168 -0.21747 0.059591 -0.20125 0.56772 -0.44969 0.27161 0.60714 -0.65597 -0.38414 1.0408 -0.20659 -0.19236 -0.69337 -0.73901
success -0.09365 0.52359 -0.25771 -0.070594 -0.024704 0.15472 -0.71638 0.19921 0.37337 1.07 0.18652 0.14885 -0.90904 -0.29839 0.26002 -0.1573 0.62769 -0.054288 -0.45904 -0.11208 -0.038781 -0.01349 -0.029441 -0.29288 0.48665 -1.1699 -1.2364 -0.50309 0.28261 0.36255 3.0535 0.75565 0.058124 -0.6127 0.11773 -0.24694 -0.22847 0.58849 -0.78022 -0.95572 -0.46784 -0.54124 -0.67443 -0.50789 -0.2992 0.034926 -0.21086 0.28679 -0.099461 0.16039
changes 0.34969 0.085019 -0.3866 -0.061465 -0.60655 0.70054 -0.023593 -0.36708 -0.21802 -0.22341 0.18299 0.40007 -0.24392 0.054441 0.36044 0.94381 -0.21802 -0.96313 0.39605 -1.1253 -0.032288 -0.67675 -0.26636 -0.2882 0.26044 -0.93109 -0.65328 -0.021042 0.2577 0.69589 3.5766 0.33406 -0.39117 -1.2605 0.013965 -0.10605 0.29958 -0.021042 -0.27777 -0.021652 -0.79201 0.14905 -0.18853 0.15533 -0.32653 0.31925 0.61195 0.80472 0.207 0.56997
la 1.1805 1.0504 -1.5657 0.16632 -1.4817 -1.1179 -0.16465 0.31751 -0.71051 0.64026 -0.37812 0.091452 -0.43996 -0.74017 -0.12375 -2.482 -0.34616 0.4663 -0.30535 -0.081366 -1.2766 0.31415 0.04818 0.24478 -0.71539 -0.48472 -0.90492 0.95155 0.035296 -0.38285 2.7223 -0.73746 -0.70439 0.40915 -0.89602 -0.74995 0.29506 -0.0083091 0.95826 -0.083563 0.66867 -0.37327 0.82961 -1.5025 -1.0053 -0.39605 -1.0406 -1.4733 1.2182 1.3091
residents 0.75149 -0.090452 0.50937 -0.67758 -0.038489 -0.46475 -1.2437 0.65906 -0.34193 -0.4178 -0.26911 -1.6271 1.7198 -1.0115 0.24988 0.57572 0.11495 0.039286 0.066206 -0.26653 0.18257 0.72599 -0.39516 0.41391 0.11902 -1.094 0.043732 0.097279 0.39398 -0.47724 2.9863 0.70068 0.11455 -1.0247 0.083181 0.13563 0.060835 -0.9312 0.55158 0.70222 -0.9401 0.52028 0.60405 0.12646 0.16149 -0.33901 -1.2959 -0.42574 -0.077817 -0.32762
meanwhile 0.18703 -0.26911 0.6494 0.12131 0.36601 -0.4452 -0.88538 0.39505 -0.38149 -0.53163 0.094998 -0.4014 -0.38125 -0.12396 0.18982 0.29999 -0.17167 -0.53452 -0.047074 -0.29339 0.38264 0.41194 0.27094 -0.40295 -0.072119 -1.4962 0.57601 0.16318 -0.66984 0.45917 2.7247 0.24935 0.093601 0.071995 -0.12255 -0.4028 -0.40556 -0.03286 0.083179 -0.11942 -0.17304 0.61718 0.07644 -0.90894 0.84106 -0.091384 -0.72976 0.38242 0.10325 -0.095038
net 0.047509 -0.70212 1.3383 0.10213 0.35452 0.19008 -0.58016 -0.79778 0.74459 0.51561 0.23593 -0.19689 -0.67804 -0.16404 0.13915 -0.6953 -0.18825 -0.87654 -0.9931 -0.29673 0.14843 -0.77295 -0.26242 -0.62245 -0.18055 -0.74423 -0.0012711 0.17206 0.090398 -0.50761 3.0173 0.99356 1.442 1.187 -0.76493 -0.55083 -0.28309 0.37148 0.7048 -0.6455 0.62187 0.14604 0.53998 0.10811 -1.2171 -0.45344 0.18041 0.64027 0.68847 0.076774
sides 0.49849 0.24185 -0.63457 0.0067353 0.21426 0.29074 0.18668 0.8461 -0.97663 -1.0842 -0.46872 -0.13248 -0.88278 0.029629 -0.48134 0.48508 0.83077 -0.78736 0.325 -1.0624 0.27707 0.31875 1.0945 -0.14652 -0.060125 -0.87908 0.65342 0.81745 0.22306 -0.34727 3.66 0.42165 -0.56903 -0.30906 -0.037608 -0.28992 -0.29693 0.0048586 -1.0618 -0.070413 -0.17329 -0.74677 0.20775 -0.26984 0.054573 -0.025803 -0.049457 0.74831 -0.59855 -0.97692
jobs 0.19894 -0.6557 1.0365 -0.78175 -0.034146 -0.12843 -1.1377 0.00021595 -0.1335 -0.60713 -0.3144 -1.0396 0.30044 -0.59639 1.3528 -0.19393 -0.088618 0.83804 0.80181 -1.3708 0.72714 -0.24846 -0.75843 0.028299 -0.16869 -0.69187 -0.17625 -0.7858 0.35533 0.74469 3.1897 0.91909 0.26608 -0.17644 -0.4604 0.25533 -0.80216 0.44681 0.59007 -0.79281 -0.90208 -0.21839 0.57968 0.39059 0.044697 -0.37132 -0.40844 0.67561 -1.0376 0.72072
hall -0.80421 1.7082 -0.68257 0.065329 0.35153 -0.31244 -1.2387 0.086671 -0.35183 -0.89508 -0.63705 -0.049691 -0.38582 -0.24043 0.2979 0.40852 0.52458 0.67853 -0.82248 -0.67577 0.92614 0.35912 -1.115 -0.19359 -0.043968 -0.86866 0.013827 -0.09513 -0.88214 -0.45777 1.9296 -0.22641 0.22532 -0.94134 0.22137 0.40402 1.4295 0.1483 0.33792 0.29392 -0.33505 -0.031996 -1.1693 0.37762 0.051438 0.54051 -0.71884 -1.45 -0.65237 0.088178
believed 1.2395 -0.13195 0.6213 -0.37846 0.89753 0.33756 -0.59893 0.11081 -0.13291 -0.026378 0.37312 0.036074 -0.23748 -0.31603 0.39119 0.23215 0.28122 -0.046754 -0.42391 0.25467 -0.52397 0.34068 0.6336 -0.20285 0.2887 -1.9144 -0.55612 -0.31127 -0.045935 0.076587 2.388 -0.67196 -0.15339 -0.82592 0.35712 -0.24813 -0.10579 -0.081802 -0.38287 0.46202 -0.40677 0.030085 0.35967 0.26728 0.71313 -0.4211 -1.0732 0.12266 -0.05581 -0.75088
olympic -0.92192 1.8964 -0.089096 1.8737 -0.205 -0.28065 -0.39691 0.23569 0.54298 -0.65655 0.4702 -0.55816 -0.97581 0.36171 1.6403 -0.03052 0.74846 0.56689 -1.3094 -1.0412 -0.081041 -0.033068 -0.59131 -0.42702 0.52491 -1.4647 -0.074441 -0.30602 -0.70057 -0.22948 1.7236 1.3049 -0.84754 -0.3397 -0.48505 0.10887 0.71109 1.2445 -1.0695 -0.45398 -0.32478 -0.37157 0.81534 -0.021454 0.39852 -0.10013 -0.58603 -0.1378 -0.033193 -0.83187
deputy -0.55629 0.18394 -0.10779 0.76178 1.0457 -0.42081 0.11208 0.15151 -0.49388 -2.2825 0.2605 0.48337 -0.5351 0.53619 -0.0043887 -0.042649 -0.065731 0.31256 0.70345 0.60787 0.20831 0.049667 0.39173 -0.40762 -0.28485 -2.0141 0.81431 -0.12442 -1.4816 0.98455 2.0638 -0.51269 -0.43771 -0.66411 -0.13085 0.37552 0.32774 0.44632 0.3674 0.6982 -0.46886 1.4842 -0.37062 -1.4097 0.26286 -0.41167 -1.4747 0.36004 0.77905 0.92291
records -0.7431 0.32944 0.27683 0.42189 -0.57555 -0.071554 -1.1739 0.22748 1.0866 0.46412 0.37965 0.60285 -0.5996 0.035822 0.86084 -0.42616 -0.86164 -0.51118 -0.20983 -0.15976 0.36218 0.013198 0.75508 -0.26193 -0.52993 -0.85421 -1.717 -0.40772 -0.09149 -0.6998 2.7036 -1.064 0.18467 -0.40747 -0.11576 0.20715 0.83361 -0.75333 0.33722 -0.7898 0.18105 -1.0091 -0.16179 0.24737 -0.62759 -0.22021 -0.12645 -0.33641 -0.40344 -0.73523
heart 0.83107 0.89355 -0.15356 -0.62906 -0.21052 1.1233 0.36573 0.52539 0.84858 0.7195 0.3634 -0.42949 -0.25525 0.095809 -0.097476 0.60785 -0.61078 0.005744 -0.20188 0.39034 -0.53284 0.67998 0.041442 -0.063156 0.38967 -1.8203 -1.0337 0.40151 0.24797 -0.13607 2.9198 0.45867 0.31241 -0.23788 -0.27991 0.12734 0.92298 0.2459 1.3024 -0.22881 -0.36346 0.082996 -0.50646 0.18301 0.75422 0.65287 -0.12559 -0.75379 -0.33635 0.087592
champion -1.9159 1.0796 0.24332 1.8538 -0.13691 0.47247 -0.46517 0.9396 -0.27573 -0.22224 0.90494 -0.31801 -2.0171 -0.037777 1.1155 -0.3905 0.98565 0.12626 -1.5546 -0.416 -1.6988 -0.012479 -0.21559 -0.038084 0.64387 -1.8098 0.064928 -0.92187 -0.73749 0.053487 1.605 0.53539 -0.1642 0.60776 -0.12477 -0.43682 -0.074933 1.7582 -0.37392 -1.2926 0.12977 -0.090068 0.49745 -0.28761 0.55375 0.068843 -0.34886 -1.4297 -0.032107 -0.43507
award -1.3086 1.7375 -0.57947 0.39603 0.54224 0.41411 -0.6104 -0.65784 1.0299 0.58311 0.29289 0.76647 0.23736 0.26949 0.61541 -1.1809 0.84402 0.59988 -1.0476 -0.16932 0.69944 0.12318 -0.41059 -1.0214 0.023593 -1.3111 -1.7193 -1.2015 -1.9113 -0.5664 1.8896 0.4123 -0.36942 -0.74746 -0.22967 0.19631 0.52465 0.35923 0.045232 -1.1562 0.20787 0.55651 -0.8668 -0.8587 -1.3831 -0.33113 -0.46826 0.11572 -0.42546 0.45634
planned 1.6365 0.20151 0.32095 0.18024 -0.39761 -0.17686 -0.79044 0.030088 -0.070427 -0.288 -0.59551 -0.48096 -0.27968 0.15777 0.66333 0.49233 -0.035861 -0.080224 -0.38224 -0.23342 1.3509 -0.2982 -0.62923 -0.3958 -0.29629 -1.3677 0.27608 -0.28882 -0.15518 -0.12759 2.7916 0.23759 -1.2871 -0.20151 0.038851 -0.34982 0.68414 0.001329 -0.72684 0.27259 -0.52182 -0.17658 -0.14031 -0.61509 0.089077 -0.24464 -0.3015 0.35521 -0.3425 0.31795
version 0.051293 -0.26675 -0.018365 -0.18127 -0.36027 0.8379 -0.92812 -1.6883 -0.59773 0.90649 0.35224 0.54026 0.14898 0.50083 0.79767 -0.061373 -0.91955 0.58789 -0.43823 -0.40394 -0.030739 -0.10485 0.028128 0.42683 0.42864 -0.77797 -1.0065 0.30549 -0.092836 -0.23479 3.1454 -1.2909 -0.45878 0.48342 0.47716 -0.088498 1.2245 -0.35658 -1.3234 -1.2299 0.6993 -0.055224 -0.51072 -0.97704 -0.50898 0.56811 0.38373 -0.2553 -0.28489 0.56349
grand 0.12027 1.7076 -0.84847 1.3061 -0.1484 -0.22124 0.14696 1.3428 -0.62895 -0.25422 -0.64526 -0.35319 -1.3131 -0.026369 0.58856 -0.5184 0.063154 0.073899 -0.80355 -0.7691 0.65393 -0.56281 -0.81812 0.46678 -0.72681 -1.5922 -1.4048 -0.11259 -0.59497 -0.34315 1.8548 -0.26006 -0.65162 0.13924 0.99577 -0.51428 0.56132 0.69656 -0.38287 -0.045935 -0.32975 -0.35681 0.092544 0.088761 -0.78108 -0.035788 -0.36241 -1.0795 0.41262 -0.65425
institute -0.3411 0.64823 -0.46652 -0.06079 -0.15421 -0.31368 -0.9312 -1.3818 0.74485 -0.40416 1.0143 -0.4021 0.166 -0.25921 -0.598 0.32617 0.076657 0.72772 -0.55228 0.80999 0.93304 0.54259 -0.56399 -0.79674 0.10734 -1.5654 -0.8928 -0.91065 -2.2691 -0.069397 2.2571 -0.49348 -0.28726 -1.8818 -0.77086 -0.55019 -0.27464 0.87232 1.9981 0.45704 0.0099083 -0.31187 0.40242 -0.37094 0.35127 0.51333 0.20855 0.69755 -0.14489 0.3089
step 0.57733 -0.079701 -0.20975 -0.11541 0.31376 0.011425 0.19011 0.21369 -0.0063025 0.30205 -0.21665 0.12595 -0.97674 0.43805 0.11232 0.55469 0.53615 -0.57054 0.70119 -0.64873 0.26062 -0.0087581 -0.46574 -0.42471 0.29868 -1.7057 0.29826 -0.0092123 0.31325 0.098246 3.1946 0.50117 -1.4319 -0.30769 -0.12327 -0.41944 0.19465 0.32694 -0.45018 -0.33752 -0.62774 -0.19602 -0.47937 -0.36564 0.18647 0.0031687 0.26461 0.4348 0.050154 0.1615
democrats -0.10274 -0.79103 1.1579 -0.72557 -0.2062 1.2976 -0.54137 0.28098 -1.3292 -0.66754 -1.7889 -1.2233 -0.061571 0.26478 -0.68647 -0.17079 0.58708 -1.0618 0.53962 -1.1728 -0.28573 -0.17763 0.66815 -0.31076 0.17551 -2.0641 -0.41572 -0.054572 -0.49815 0.25606 2.3512 0.88289 -1.0401 -0.93945 -0.52068 -1.2283 -0.65799 0.46369 -0.17602 -1.0442 -0.8265 0.41469 -0.67529 0.53768 -0.48917 0.47946 -1.2254 0.37776 0.089557 0.49689
rule -0.66363 -0.64151 -0.4977 -0.23455 -0.29071 0.074016 0.69276 0.033831 -0.85544 0.0099449 0.14174 0.10607 -0.61069 -0.19831 0.47243 0.69107 -0.16552 -0.84442 0.44601 0.48243 -0.39678 -0.35128 -0.56904 -0.36713 -0.27192 -2.2157 -0.36563 -0.75771 0.38559 0.73749 2.9505 -0.46838 -1.331 0.17992 -0.1094 -0.20298 0.25292 -0.26998 -0.83147 0.28015 -0.89313 0.24354 0.1725 0.94529 -1.1157 0.18465 -0.37275 -0.19556 -0.31604 -0.86618
labor -1.0408 -0.33298 -0.029981 -0.40867 -0.30621 0.51743 -0.57551 0.070567 -0.56426 -0.7333 0.13785 -0.64051 -0.0019387 0.19113 0.5597 -0.16138 0.32842 -0.392 1.1212 -0.80956 0.40635 -0.55274 -0.68909 -0.24757 -0.31941 -1.1801 0.36871 -0.72546 -0.051116 1.6135 3.0426 0.10059 -0.45175 -0.40093 -0.89664 -0.40497 -0.29098 -0.20273 0.60622 0.12074 -1.2019 0.045937 0.1029 0.14048 0.49142 -0.57373 -0.99358 0.34936 0.30422 0.60045
above 0.20461 1.1844 0.88444 -1.0012 0.79837 -0.56763 0.28192 -0.65914 -0.15603 -0.39741 -0.13706 -0.56106 0.14916 -0.23118 0.032053 0.41856 0.093921 -0.21944 -1.175 -1.0742 -0.27582 -0.32302 0.26617 -0.30197 0.06571 -0.75212 -0.049711 1.3707 -0.023043 0.11972 3.4593 -0.15812 0.92542 0.070879 0.11557 -0.472 0.28877 -0.30514 0.25907 -0.21814 0.03788 -0.063147 0.60011 0.72842 -1.035 -0.26292 0.79245 -0.43415 -0.15939 -0.73824
summit 1.2896 1.9479 -0.74428 0.25856 -0.12452 -1.0467 -0.27783 -0.28695 -0.23316 -0.55097 -0.55899 -0.88337 -0.5051 0.9367 0.061595 0.8479 0.57201 -0.71098 -0.19402 0.31663 0.56518 -0.20291 0.21729 0.04498 -0.06301 -0.81329 0.66445 0.74083 -1.3787 0.45765 2.616 0.99683 -1.6199 -0.18554 -0.24387 -1.3524 -0.30776 0.10132 -0.77725 -0.052892 -1.2464 -0.71429 0.11359 -1.4388 0.64233 0.98183 0.38939 0.71215 0.11663 -0.61718
sometimes 0.49702 0.015437 -0.61546 -0.75006 0.14033 0.5938 -0.048329 0.13934 -0.71462 0.17335 -0.2036 0.49305 0.41708 0.078533 0.21143 0.076777 -0.053277 -0.00097839 -0.073005 -1.1104 -0.43272 0.10309 0.87537 0.6274 0.6438 -1.3832 -0.66854 0.69158 0.8708 -0.28714 3.2935 -0.11399 0.46678 -0.66633 0.0087933 0.36988 -0.16624 0.10277 -0.56319 -0.057805 -0.04682 0.31407 0.039253 0.992 0.46411 -0.29936 0.097787 -0.34017 -0.10206 0.10146
addition 0.38028 0.68301 -0.057183 0.012286 0.054211 0.54306 -0.54647 -0.4569 0.18634 -0.048368 -0.0010198 -0.011101 0.2649 -0.17663 0.099001 -0.30415 -0.1115 0.23445 -0.10184 -0.53756 0.56691 -0.35934 0.012827 -0.066551 -0.62067 -0.72556 -0.0073007 -0.43939 -0.23023 -0.071584 3.3474 -0.039583 0.23571 -0.69037 0.44126 0.5139 0.31535 0.22067 -0.17468 0.26215 0.0986 0.11647 0.023097 0.030304 0.020432 -0.055421 -0.25051 0.19445 -0.49512 0.31249
raised 0.28087 0.32947 0.24277 -0.64042 0.55387 0.46105 -0.53454 -0.10809 0.083315 -0.40491 -0.32373 -0.2953 0.35873 -0.67897 0.32052 0.21708 -0.32546 -0.098991 -0.44641 -0.22937 0.524 -0.22463 0.026035 -0.69683 -0.2497 -1.7741 0.27237 0.34928 -0.44757 0.4054 2.6259 0.043775 0.3851 -0.13516 -0.21145 -0.67903 -0.30631 -0.2395 0.20371 -0.56217 -0.44976 0.10355 0.010415 0.17641 0.18484 -0.19834 -0.5763 0.030749 -0.3069 -0.14209
william -0.24043 0.6082 -0.48524 -0.67655 0.47653 0.54214 -1.1289 -0.14108 -0.62049 -1.4948 -0.79884 1.462 -0.38976 -1.3709 -0.061257 -0.031826 0.048996 -0.67869 -0.93624 -0.38677 0.63911 0.11378 -0.18871 -0.56945 0.22715 -1.7402 -0.017149 -1.1276 -0.52365 0.59987 1.1443 -1.4551 0.0084974 -0.75582 0.8778 -0.51386 -0.23394 0.38854 0.12535 0.044495 0.69381 1.0584 -0.18159 -0.371 0.05549 0.31744 -0.41296 -1.3483 -0.40676 0.99744
needs 0.39172 0.29477 0.43424 -0.2191 0.62783 -0.019882 -0.064515 -0.059288 0.58532 0.038641 0.13873 0.24341 -0.062583 -0.21288 0.26623 0.50444 0.51861 0.46233 1.0219 -0.63609 -0.30113 0.17317 -0.36331 -0.16573 0.58024 -1.3882 0.10176 -0.28356 0.37848 0.067091 3.4539 1.015 -0.51685 -0.43102 -0.11261 0.28705 -0.035774 0.5644 0.38663 -0.56364 -0.20326 -0.057872 0.34103 0.12039 -0.29686 0.70271 -0.12898 0.83737 -0.061004 0.82116
26 -0.21822 0.42486 0.79995 0.093551 0.2399 0.42674 -0.85534 -0.14904 -0.45711 -0.54391 -0.099908 -0.72352 -0.42688 -0.22086 0.96325 -0.70929 -0.89585 -0.36713 -1.6831 0.78487 0.54522 0.18736 1.1054 -0.1854 -0.64496 -0.53902 0.79102 -0.84797 0.081412 0.26156 2.7516 0.010947 -0.35324 0.12025 0.71263 -0.33106 0.76567 0.15891 0.45323 0.27712 -0.41601 -0.22042 0.68205 -0.90053 -0.82357 0.55334 -0.52588 -0.64438 0.27945 0.13484
talk -0.034604 0.41087 -0.097368 -0.19548 -0.05855 -0.2581 -0.85141 0.19582 -0.76829 0.37035 -0.63907 0.30593 -0.38117 0.40505 0.90915 0.54359 -0.088861 0.17422 0.33587 -0.36806 0.32399 1.056 0.68695 0.81261 0.74166 -1.7618 -0.085259 0.34565 0.55371 -0.24026 2.8321 0.80733 -0.59279 -0.52127 -0.60045 -0.39173 -0.27123 -0.52009 -0.4718 -0.46781 -0.046203 0.39371 -0.78866 0.43174 0.52053 0.028046 -0.013935 0.56204 -0.5977 0.95068
longer 0.48451 0.38714 0.25167 -0.77417 0.2801 0.16307 -0.13793 0.058456 0.021693 -0.057757 0.24759 0.37767 0.022451 0.037534 0.59911 0.91215 0.10666 0.18424 0.22779 -0.71327 -0.42339 -0.20002 0.44794 0.29211 0.16819 -1.5699 -0.18898 0.38409 0.92561 0.024784 3.4005 0.18005 -0.095739 -0.21391 0.18975 -0.35275 0.20199 0.41773 -0.63125 -0.411 -0.25686 -0.31737 0.44627 0.83197 -0.43048 -0.32631 -0.069559 -0.072752 -0.61538 0.49232
terms -0.13904 0.42043 -0.53412 -0.12861 0.65239 0.47077 0.19385 -0.30161 -0.5602 0.32973 0.16424 0.43864 -0.14502 -0.31357 0.41598 -0.0022815 -0.040335 -0.32623 0.37683 -0.31494 0.20484 -0.33379 -0.093126 -0.15238 -0.29138 -1.2608 -0.11347 -0.068632 0.41882 0.61743 3.4452 -0.20467 -0.28479 -0.61239 0.63146 -0.571 -0.10118 0.16337 -0.71514 -0.21652 -0.41741 -0.25815 0.42439 0.5217 -1.2152 -0.33348 0.079441 1.183 -0.032272 0.38064
rules -0.95702 -0.58742 -1.0281 -0.10909 -0.73223 0.29174 0.18741 -0.69521 0.020068 -0.67982 0.049978 0.79694 -0.60343 0.24982 0.74112 0.58401 0.12181 -0.48658 0.50124 -1.1451 0.35593 -0.30902 -0.31816 0.15527 -0.46597 -1.8679 -0.018714 -0.19027 -0.026758 0.039252 3.0198 0.06833 -1.0644 -0.58351 -0.0091301 -0.23793 0.67221 -0.32314 -0.7416 -0.17852 -0.56823 -0.3585 0.94585 1.4624 -0.79086 -0.0083287 -0.020453 0.86548 0.36066 -0.070635
ruling -0.48912 -0.87249 -0.1974 0.8874 0.21103 0.40887 0.68521 0.53824 -0.38069 -0.17553 -0.3465 -0.71257 -0.46798 0.1298 -0.064674 0.17598 -0.3668 -1.2348 0.83265 -0.25866 -0.43283 -0.23958 -0.048899 -0.25916 -0.46677 -2.253 -0.059478 -0.37968 -1.3816 0.43484 2.6684 -0.58297 -1.4238 -0.14311 -0.59722 -1.1672 0.45972 -0.50617 -0.43679 -0.46709 -0.6912 0.16632 -0.59571 0.52951 -0.46903 0.55974 -1.4009 0.16742 0.6586 -1.0104
joint 0.91318 0.18597 -0.63553 1.079 0.12263 0.30355 -0.0081877 -0.0007494 0.74543 -1.0338 0.29108 -0.023683 -0.76408 0.57465 -0.75956 -0.04379 -0.37953 0.17578 0.23085 -0.025514 1.0115 -0.060138 -0.14903 -0.78465 -0.90672 -1.0867 0.22665 -0.33995 -0.90098 0.16381 3.329 0.30459 -0.84125 0.32449 -0.11498 -0.08093 -0.056531 0.20979 -0.39989 0.11491 -0.033008 -0.55239 -0.15927 -0.79108 0.42927 0.1041 -0.19211 1.294 -0.65293 0.21007
ball -1.0448 -0.69797 -0.10083 -0.37426 0.69421 -0.2464 -0.76056 0.10572 0.2586 0.25263 -0.031373 0.77425 -1.3667 0.57333 -0.039805 -0.294 0.84373 -0.69412 -1.669 -0.9469 -0.63603 0.26506 0.39887 -0.23512 0.71075 -1.7373 0.7182 0.94293 0.68663 -1.6145 2.6355 0.34523 0.16226 0.58006 0.15597 0.71217 0.39527 1.3211 0.22099 -0.032896 0.46437 0.93906 -0.55288 0.52962 -0.50239 0.03018 0.77379 -0.82515 0.46383 -0.6999
beginning 0.23159 0.18725 -0.39507 -0.68511 -0.30674 -0.38752 -0.85638 0.036611 -0.47948 -0.21026 0.027212 -0.19848 -0.3493 -0.042399 0.91619 0.20037 -0.54785 -0.33263 -0.68657 0.26948 0.71362 -0.44818 0.30306 -0.0023449 0.24604 -1.0095 -0.55377 -0.40359 0.42841 0.39551 3.2734 0.012932 -0.49407 -0.40354 -0.043919 -0.26623 0.056495 0.17452 -0.35422 0.018872 -0.95495 -0.56019 -0.38309 -0.3342 -0.36327 0.34818 0.58537 -0.25111 -0.59635 0.11557
sure 0.098481 -0.10472 0.42925 -0.31915 0.69646 -0.42104 -0.408 0.44559 0.015993 0.084546 -0.28307 0.50591 -0.46931 0.057326 0.76237 0.68702 0.62683 -0.05091 0.43207 -1.0026 -0.45999 0.29291 0.45754 0.23255 0.72466 -1.7998 -0.57513 0.38135 0.9532 -0.80366 2.9163 0.80574 -0.48912 -0.27898 -0.14272 -0.055105 0.21105 0.50757 0.32239 -0.61422 -0.10563 -0.036446 0.1244 0.50305 0.17504 0.269 -0.14858 0.30652 0.15998 0.82944
28 -0.3529 0.40084 0.78817 0.023485 0.25018 0.43323 -0.76438 -0.16819 -0.47921 -0.46198 -0.087745 -0.75746 -0.45215 -0.27435 0.8936 -0.57327 -0.87674 -0.40272 -1.6636 0.73166 0.58405 0.1049 1.1528 -0.2098 -0.71302 -0.60422 0.74701 -0.71666 0.092796 0.30186 2.7274 -0.048856 -0.37272 0.15233 0.75981 -0.4613 0.75876 0.2684 0.42265 0.24772 -0.36102 -0.26264 0.66179 -0.76379 -0.89632 0.46482 -0.58338 -0.68574 0.30293 0.14929
stay 0.65441 0.31838 0.070363 -0.59147 0.34671 -1.047 -0.68774 1.1305 -0.43394 -0.1514 0.0032039 -0.020321 0.037792 0.22002 0.81315 1.0103 0.1455 -0.37747 0.19326 -0.4068 -0.1672 0.656 -0.12228 0.57226 0.14479 -1.4674 0.80944 0.17311 0.42885 0.059929 3.0133 0.99317 -0.80836 0.072926 0.36601 -0.23444 0.32211 0.32901 0.059415 -0.73308 -0.43275 -0.060536 0.29161 0.41427 0.072776 -0.03622 -0.085158 -0.38671 -0.034887 0.44865
safety -0.60245 0.077829 0.5245 0.05071 -0.5625 -0.014281 -0.83718 -0.2736 1.5794 -1.0203 0.4452 0.68678 -0.71726 -0.11622 -0.0036947 0.3234 -0.031926 -0.0153 0.1167 -1.388 -0.26706 0.48426 -0.73987 -0.93877 0.16506 -1.718 0.27917 -0.030483 0.42339 -0.10717 2.6105 0.42996 -0.21392 -1.337 0.5733 0.56992 0.85339 -0.3911 0.43954 0.4493 -0.61934 0.035719 0.86598 0.3454 0.37864 0.038519 -0.23098 0.95807 0.45922 0.2255
worth 0.40404 0.38785 0.53397 0.050586 1.0592 -0.19771 -0.73748 -0.96401 0.10416 0.64309 -0.89613 0.24857 0.50513 -1.1126 1.5832 -0.4188 -0.29467 0.74204 -0.65587 -0.10727 1.0485 0.014371 -0.29496 -1.0849 -0.13987 -1.267 -0.0055735 -0.15354 0.5994 -0.85121 2.957 0.34914 0.50162 1.0832 0.22413 -0.18622 -0.27975 0.3788 0.30698 -0.4996 0.11265 0.01807 1.1316 0.38496 -0.74253 0.087778 -0.71134 0.84719 -0.55723 0.30022
charge 0.20823 -0.15421 0.38614 0.18686 0.69432 0.31529 0.53313 0.13263 0.11391 -0.27082 -0.22714 0.17556 -0.63315 -0.68579 0.59787 -0.42427 -0.08221 0.13939 -0.34662 -0.39862 0.83504 -0.08517 -0.051819 -0.17184 -0.97714 -2.0276 0.7624 -0.31327 0.13501 0.22173 2.6333 -0.10381 -0.33875 -0.50352 0.36121 0.32439 0.41911 -0.14709 0.089772 -0.087885 0.28824 0.44401 0.38536 0.31108 -0.11014 -0.76303 -0.46141 0.66187 0.73445 0.16664
korean -0.37091 0.45293 -0.02317 0.41713 -0.45777 -0.44084 -0.14999 0.29865 -0.3741 -0.34091 0.37764 0.0049877 0.35465 0.8761 -0.19744 0.024696 -0.38896 0.92814 0.059199 0.87424 0.52466 0.22725 0.20158 -0.3262 0.5885 -2.1577 0.10742 -0.18381 -0.60222 -0.18491 3.1231 -0.44597 0.12975 1.188 0.17618 -0.27286 -0.13756 -0.60492 -1.4584 -0.44235 -0.74184 -0.79881 1.1227 -0.78005 1.7246 -1.0448 -0.25364 0.95281 -0.47055 -0.75217
begin 0.78935 -0.11272 -0.052922 -0.37728 -0.3212 -0.24716 -0.75656 0.41476 -0.035821 -0.27687 -0.32666 -0.31582 -0.32013 0.3639 0.90324 0.46102 -0.26195 -0.29532 -0.048615 -0.497 1.1649 -0.035464 0.51134 -0.085935 0.034789 -0.96857 0.45049 -0.34168 0.646 -0.36148 3.1212 0.75506 -1.3614 -0.47715 0.0074122 -0.051868 -0.0102 0.18619 -0.12723 -0.0018361 -0.87228 -0.60748 0.033482 -0.049084 0.20359 0.043393 0.65307 0.27783 -0.70599 0.13716
arab -0.066035 0.64675 -0.41263 -0.33132 0.95629 -0.55173 -0.28494 0.15756 -0.32037 -0.11216 -0.021697 -0.91348 0.087775 0.58072 -0.46483 0.88592 0.91336 -0.8126 0.34088 1.294 0.53584 0.43284 0.66718 0.53523 -0.60124 -1.5245 -0.35369 -0.34303 0.13912 0.9089 2.8557 0.65982 -0.59059 0.3353 -0.36759 -0.25571 -0.89671 -0.53083 -1.6048 0.89356 -0.14188 -0.27786 0.2017 -0.35831 0.64615 0.26859 -1.4655 1.1802 -0.73026 -1.2033
27 -0.37143 0.45711 0.74588 -0.00984 0.1735 0.37322 -0.82301 -0.21701 -0.48114 -0.48296 -0.13167 -0.83994 -0.56582 -0.27577 0.89172 -0.6961 -0.80161 -0.54508 -1.6502 0.7679 0.6339 0.14172 1.129 -0.11005 -0.68583 -0.66878 0.76874 -0.75597 0.048398 0.22711 2.7194 -0.044831 -0.4182 0.086148 0.81722 -0.45213 0.78747 0.23648 0.39855 0.3163 -0.47679 -0.15467 0.60585 -0.79192 -0.71346 0.45662 -0.57277 -0.69219 0.33243 0.091814
friends 0.56447 0.99891 -0.10346 -0.62079 0.84667 0.13505 -1.4362 0.49886 -0.6645 -0.099902 -0.54387 0.50594 0.0085205 -0.041121 0.74228 -0.19403 -0.077764 0.21345 0.4045 -0.41583 0.30789 1.4237 0.41258 0.80008 0.66945 -1.4126 -0.49322 -0.49813 0.073899 -0.86317 2.3199 0.85326 -0.21638 -0.52742 -0.098297 0.15082 -0.53369 -0.22511 -0.061727 -0.31506 -0.040504 0.17529 -0.33621 0.36171 0.84428 -0.30826 -0.73907 -0.91513 -0.48072 0.22964
anything 0.12032 -0.14806 0.0059001 -0.1513 0.73477 -0.020235 -0.1283 0.2824 -0.37247 0.5392 -0.32492 0.62964 -0.47021 -0.26115 1.1839 0.81042 0.56439 -0.094667 0.14284 -0.96397 -0.19886 0.44419 0.40911 -0.040374 0.8411 -1.9978 -0.93538 0.38094 1.5068 -0.98297 2.7482 0.3414 -0.55355 -0.52159 -0.26366 -0.18362 0.17223 0.14807 -0.060604 -0.29849 -0.17109 0.024843 0.19866 0.61111 0.15474 -0.12345 -0.21599 0.42136 0.042587 0.72711
atlanta -1.0255 1.14 0.27088 1.2964 -0.22467 -0.55808 -1.9727 -0.52942 0.55607 -0.48596 -0.7555 -0.55799 -0.99334 0.13091 0.83527 -0.058354 -0.79702 -0.5973 -0.43055 0.095148 -0.42831 0.5277 -0.41006 0.64514 -0.59836 -1.0417 -0.060947 -0.45935 0.79238 -0.80473 1.781 0.52496 0.036867 -0.51445 -0.19282 -0.31396 0.094393 0.17953 0.91322 0.48565 -0.053946 0.3348 0.24868 0.71448 0.040415 1.4561 -0.15356 -0.15673 -0.55824 1.0741
caused 0.95438 -0.21933 0.37692 0.012643 -1.1072 1.1705 0.28609 0.75092 0.31291 -0.069702 0.33761 -0.17142 -0.13119 -0.45271 0.76686 0.3108 -0.55738 -0.3599 -1.0578 -0.54042 -0.082993 -0.55569 0.137 -0.67408 0.4995 -1.4649 -0.30993 0.39297 1.0288 1.1618 3.0056 -0.0389 0.75848 -0.87 -0.68416 0.2921 0.23006 -0.81213 0.79437 0.47468 -0.81794 0.48096 -0.023581 0.14669 0.70364 0.28162 -0.28642 -0.061985 0.29997 -0.57997
sources 0.95643 0.36719 0.46659 0.2276 0.16423 -0.38714 -0.59526 0.17076 -0.018891 -0.12048 0.27747 -0.15487 0.5121 -0.19949 0.1417 0.28615 -0.049353 -0.34811 0.29675 0.061789 0.46802 -0.16785 0.73712 0.057947 0.06508 -1.2238 -0.73952 0.0243 -0.22584 0.67576 3.2119 -0.892 -0.033851 -0.84672 0.27608 0.31417 -0.18936 -0.31567 -0.044487 1.0368 0.46987 0.37904 0.29741 0.050181 0.33022 -0.27877 -0.74662 1.7364 0.26189 -0.57966
sign -0.020377 0.86605 0.071975 -0.29717 0.61177 -0.26226 -0.99114 0.13033 -0.21726 0.31929 0.43703 0.41547 -0.17183 0.010549 0.40697 0.43385 -0.40842 -1.0057 0.41781 -0.48802 -0.31581 -0.14833 -0.48956 -0.44998 -0.15654 -1.6381 0.45729 0.66612 0.54645 -0.70091 2.9181 0.64364 -0.83838 -0.38647 -0.3105 -0.31526 0.19864 -0.73908 -0.35856 -0.37951 0.05021 -0.2253 -0.21787 -0.28566 0.1435 0.15005 -0.087192 0.98304 -0.2071 -0.59829
issued -0.10953 -0.048526 -0.19334 0.027005 -0.16382 -0.44512 -0.53065 -0.13978 0.053415 -0.45677 -0.02799 0.40959 0.36418 -0.29037 0.62373 -0.25014 -1.6368 -1.3066 0.20224 -0.23917 0.76329 -0.22549 0.34008 -0.9925 -0.82573 -1.6773 -0.16235 -0.081982 -0.99816 -0.044483 2.6156 -0.68146 -0.59436 -0.36896 0.12606 -0.52822 1.0741 -1.0957 -0.71339 -0.10487 0.15154 0.1293 0.18404 -0.50173 -0.23142 0.10273 -0.98713 1.0852 0.11324 -0.26453
armed 0.43666 -1.0133 0.59642 -0.33046 0.69188 -0.18323 0.25286 0.038731 -0.55732 -1.2266 0.0093505 -0.65057 -0.55077 0.20353 -0.75061 -0.70831 -0.067221 0.70232 -0.46315 -0.2643 -0.22597 0.52654 0.22392 -0.1148 -1.1156 -1.8437 0.30105 -0.55647 0.48766 0.31051 2.8122 -0.11433 -1.3677 -0.26025 0.2199 0.86324 -0.41307 -1.3921 -1.2979 0.63148 -0.25441 0.19933 0.41186 -0.41676 1.0463 -1.054 -0.74273 0.0079102 -0.55771 -0.79793
cents -1.255 -0.25454 1.9068 0.47546 1.2071 -0.23223 -1.1554 -0.77107 0.60576 0.38533 -0.062315 -0.22058 0.60386 -0.86748 -0.17935 0.44075 -1.4672 -0.24695 -1.5389 -0.43174 1.9749 0.90691 1.3415 -1.4502 -0.56106 -0.0004058 1.2014 -0.13461 0.78434 0.84552 2.5851 0.14351 0.76866 2.2623 1.2588 -2.0538 -0.26486 0.2921 1.0384 -1.1901 0.20207 -0.84044 0.67425 0.13067 -0.56139 0.13652 -0.54935 0.057181 0.60892 0.65366
funds 1.0326 -0.20667 1.0488 -0.81196 0.319 -0.13725 -0.43444 -0.66992 0.39683 0.2916 -0.48133 0.89998 0.43846 -0.65305 0.14075 0.071803 0.66809 -0.066865 0.55279 0.29155 1.5177 -0.82919 0.43462 -0.81852 -1.202 -1.2705 0.6358 -0.57201 -0.376 -0.032512 3.3621 0.65152 0.31131 -0.4339 -0.3911 0.17161 -0.85143 -0.018488 0.67367 -1.0877 -0.44121 -0.54815 0.39005 0.63994 -0.6387 -1.1202 -0.80442 0.72396 0.42522 0.20705
claimed 0.51494 -0.35458 0.59961 0.4536 0.25904 0.79656 -0.49776 0.47776 0.0076606 -0.22285 0.13844 -0.50485 -0.75624 -0.7226 0.53362 -0.56863 0.045819 -0.31413 -0.85475 0.39458 -0.55032 0.44999 0.5515 -0.27454 -0.10111 -1.7954 -0.31882 -0.65724 -0.37196 0.21198 2.2446 -0.48073 -0.11985 -0.051589 -0.016815 -0.069 0.20535 -0.30414 -0.50542 0.33134 0.18647 0.26498 0.062521 0.088022 0.254 -0.61473 -1.4538 0.20077 -0.031791 -0.9674
heavy -0.10338 -0.46242 0.19695 -0.32096 -0.96777 0.093447 0.31747 0.59026 -0.020371 -0.15691 0.018346 -0.49632 0.17841 -0.1718 -0.55629 -0.12826 -0.11482 0.41995 -1.0997 -1.2921 0.36797 -0.25081 0.16933 -0.95802 -0.40706 -1.1558 -0.55634 0.7256 1.3522 0.77601 3.5984 0.068468 0.63273 0.39554 0.12556 0.72624 -0.098045 -0.43297 -0.14837 0.16954 -0.09219 0.45344 0.39436 -0.68246 0.96844 -0.28436 -0.3374 -0.077905 -0.26795 -0.32666
noted -0.063037 0.41304 -0.46257 -0.029624 0.26619 0.070925 -0.70723 -0.4375 -0.11598 -0.25045 0.11961 0.38336 -0.029906 -0.27472 0.46418 -0.09505 0.10482 -0.42909 0.099888 -0.34708 0.14475 0.15355 0.23232 -0.52854 0.60773 -1.3507 -0.57859 -0.1175 -1.0173 0.69299 2.6702 -0.78983 0.51237 -0.92753 -0.23293 -0.67233 -0.025515 0.25908 -0.12441 0.43278 -0.22392 0.66921 0.0011803 -0.43937 0.45749 -0.29372 -0.6951 0.72019 -0.069574 0.74407
parents 0.2499 0.38668 -0.19192 -1.251 0.78316 0.92504 -1.1526 0.54479 -0.34344 -0.16906 0.22404 0.12546 0.65739 -0.43412 0.98241 0.10045 -0.67951 -0.12779 0.85493 -0.23239 0.05941 1.3831 -0.086172 1.0208 0.73983 -1.7882 -0.18244 -1.0067 0.17305 -0.61696 2.413 0.80347 -0.35353 -0.96029 0.43342 -0.043413 -0.00087774 -0.30938 0.66889 -0.26097 -0.46453 0.097563 0.49069 0.51902 0.71259 -0.18118 -0.38743 -0.82869 -0.053321 0.49355
spending 0.001257 -0.46617 0.75832 -1.4407 -0.29589 0.30831 -0.74602 -1.1857 0.08549 0.13891 -1.0005 -0.37483 0.14981 -0.13076 0.80251 0.032466 -0.064685 -0.46751 0.36712 -0.48299 1.0593 -0.76103 -0.29521 -0.88152 -0.2342 -1.3448 0.37767 0.16045 0.58757 0.7474 3.157 1.465 0.2396 -0.23075 -0.48716 -0.20682 -0.2764 0.49082 0.018438 -0.96901 -1.2365 0.22406 0.3639 0.039199 -0.38609 -0.29103 -0.19592 0.60802 0.4268 0.99916
e 0.73833 0.65451 1.0873 0.86066 -0.4834 -0.9825 -0.1328 -0.54704 0.35356 0.24776 -0.55684 0.76911 -0.22341 -0.97246 0.10125 -1.0475 -1.2904 -0.65822 0.48172 -0.3128 -0.048045 -0.21534 1.1261 1.1538 0.14075 -0.94391 -0.31116 -0.42186 -0.099165 -0.78428 2.7546 -0.24284 -0.17702 -0.081995 -0.54023 -0.62769 0.014979 -0.35867 0.38916 0.25102 2.0597 0.37733 0.028691 0.14071 0.1621 0.10083 0.27499 -0.16797 0.65622 1.1014
related 0.87054 0.26877 -0.24812 0.77733 -0.10663 0.98854 0.21523 -0.9465 0.45147 0.076455 -0.089917 0.34068 -0.021292 -0.4038 0.85165 -0.22601 -0.69113 -0.051165 0.18378 -0.15451 0.54206 -0.44464 0.44811 -0.26601 -0.38775 -1.1067 -0.43698 -0.68586 0.14373 0.24357 3.3432 -0.42392 0.42776 -1.0883 0.19154 0.20925 -0.2615 -0.43105 -0.036849 0.66139 -0.73273 -0.13605 0.88171 0.84206 0.67846 -0.010663 -0.1246 0.94782 0.086436 0.0039502
offered 0.66292 0.85427 0.057809 -0.17591 0.34043 0.11889 -0.97766 -0.090247 -0.41958 0.32051 -0.44901 0.25626 0.45011 -0.55267 0.33366 0.007 -0.41202 0.028535 0.26963 -0.69667 0.61497 0.51702 -0.18442 -0.4499 -0.26029 -1.1843 0.15492 -0.23104 -0.41654 -0.087132 2.8575 0.44175 -0.58492 0.081696 0.77519 -0.14075 0.047402 0.25958 -0.38696 -0.52593 0.57771 0.33231 -0.092007 0.15966 -0.036843 -0.24865 -0.41922 1.0344 -0.3138 0.316
particularly 0.45554 -0.099679 -0.80821 -0.10111 -0.063121 0.31169 -0.28957 -0.057231 -0.14976 0.44616 -0.10026 -0.076257 0.2117 -0.30356 -0.0035159 0.21479 0.41048 -0.0071365 0.10607 -0.46167 -0.30397 -0.021621 -0.029043 0.2883 0.40993 -1.4695 -0.72406 0.11968 0.46152 0.49516 3.3733 0.083525 0.8894 -1.0963 0.089513 0.050505 -0.69995 0.40201 -0.82979 0.0031316 -0.70426 0.39588 0.45412 0.20091 0.709 0.43714 -0.46771 0.35176 -0.15952 0.30771
aircraft 1.7714 -0.75714 1.0217 -0.26717 -0.36311 0.29269 -0.79656 -0.49746 0.41422 -1.0602 1.2215 0.41672 -0.40249 0.70013 -1.0695 -0.19489 -1.0886 1.2409 -2.1505 -1.1609 0.10969 0.1729 -0.82806 -0.97654 -0.14616 -1.2641 -0.13635 -0.041624 1.0939 0.7116 2.474 -0.16225 -0.26348 0.15532 1.1995 0.0076471 0.76388 -0.071138 -1.3869 0.88787 0.36175 -0.33419 1.6512 -0.52295 -0.30657 0.17399 -0.55383 0.46204 -0.59634 0.41802
whole 0.4355 -0.18377 -0.70186 -0.19652 1.1405 0.14106 0.017098 -0.28141 0.087262 -0.24277 -0.1732 -0.13183 -0.12334 -0.020219 0.56732 0.26423 0.47284 0.44945 0.061126 -0.11634 0.06643 -0.14104 0.35194 0.28434 0.56102 -1.1184 -0.87646 0.69527 0.9702 -0.31136 3.5657 0.067108 -0.12209 0.025108 -0.76243 0.096014 -0.37534 0.31891 0.26134 -0.36013 -0.37617 -0.58115 -0.17819 -0.14994 -0.39608 0.87657 0.085615 0.024979 -0.0030427 0.11946
60 0.33239 0.4212 1.5362 -0.34986 0.38104 0.22931 -0.21572 -0.62037 0.037201 0.12948 -0.40896 -1.2478 0.21557 -0.32039 0.57443 -0.43167 -0.0047035 0.45676 -1.0484 -0.24426 0.22784 0.46627 0.85842 -0.17069 -0.37853 -0.71618 0.36293 -0.36833 -0.20262 0.13996 3.2176 0.12892 0.17894 0.64935 0.52889 -0.59263 0.31083 0.20388 0.48998 0.26424 -0.28757 0.26789 1.1717 0.054267 -0.78146 0.15475 -0.67284 -0.11566 -0.2262 0.12011
authority 0.14941 -0.0498 -0.14486 -0.1144 0.1751 -0.44126 0.3142 -0.033349 0.71159 -0.54446 0.17786 0.77709 -0.292 -0.20979 -0.52457 0.95666 0.50773 -0.23648 0.57628 0.26128 0.6122 -0.00056847 -0.66488 -0.44646 -0.76751 -2.085 0.10771 -0.25436 -0.21538 0.48074 2.8148 0.12736 -0.70624 -1.0007 -0.21978 0.0039275 0.58806 -0.81102 -0.11732 0.66186 -0.34537 0.25061 0.014543 0.64163 -1.5588 -0.021905 -1.2448 0.55571 0.29179 -0.21411
risk 1.0392 0.046584 0.4527 -0.76761 -0.21841 1.0486 0.57922 0.11241 0.92903 0.30664 0.50477 0.16649 -0.095533 -0.23039 0.49677 0.72215 0.44091 -0.54112 -0.15558 -0.30254 -0.21141 -0.25978 0.30421 -0.052493 -0.113 -1.6159 -0.21783 -0.20239 0.71319 0.86507 3.0954 0.80923 0.63845 -1.0486 -0.22156 -0.30308 -0.084318 -0.49396 0.59759 -0.61887 -0.75771 -0.17446 1.011 1.0075 0.86865 -0.48037 -0.024087 0.82598 0.79648 0.55488
cannot 0.59751 -0.43505 0.50205 -0.36017 0.57239 0.029651 0.45819 0.49277 -0.085655 0.014515 0.62682 0.68755 0.019485 -0.24884 0.80687 1.2645 0.57857 -0.34103 0.68662 -0.84583 -0.2885 -0.175 0.53579 0.33212 0.59338 -1.8564 -0.39061 -0.34753 0.75789 -0.48621 3.1397 0.37391 -0.93761 -0.83119 -0.26351 -0.28465 0.42143 -0.13558 -0.21163 -0.22854 -0.16832 -0.39381 0.62153 0.75879 -0.16856 0.022767 -0.50844 0.33201 -0.02658 0.068742
matter 0.3461 0.19963 -0.7285 0.54645 0.94517 0.12786 0.78979 0.29958 -0.45819 -0.089822 -0.10059 0.46645 -0.2394 0.028771 0.97015 0.61546 0.11338 0.29266 0.26954 -0.82526 0.29189 0.02766 0.94044 -0.1876 0.82815 -2.0646 -0.48223 0.74064 0.69022 -0.36708 2.7789 -0.057757 -0.49266 -1.4193 -0.20514 -0.3743 -0.22359 0.53952 0.15164 0.18518 -0.57086 -0.070872 0.23458 0.75008 -0.33241 0.28778 0.016746 0.66783 0.078552 0.33031
science -0.60334 1.0577 -0.30452 0.056728 0.00062269 -0.15874 -0.39343 -1.6816 0.25751 0.096477 0.22256 0.40022 -0.13319 0.50095 -0.31653 -0.13437 0.36205 1.1403 -0.46058 0.78453 1.1051 0.67427 0.33348 -0.19985 0.8804 -1.5153 -1.0876 -0.97803 -1.0249 -0.08135 2.6487 -0.47125 -0.45275 -2.0287 -0.4091 0.26637 -0.66804 1.1231 0.89049 0.20298 -0.024961 -0.46865 0.25623 0.37514 -0.12434 0.72878 0.90596 0.83551 0.00022837 0.44761
access 0.47129 0.60247 1.1633 0.39828 -0.51995 -0.36966 -0.58619 -0.29422 1.6729 0.15284 -0.045884 -0.051321 0.27565 -0.46583 -0.36229 0.6698 -0.035184 -0.34495 1.268 -0.52488 0.70695 0.18834 -0.68287 0.87077 0.02273 -1.2484 0.69624 -0.51888 0.51123 -0.16155 3.5916 0.083499 -0.20828 -0.80838 -0.0090139 0.078063 0.16891 -0.06517 -0.65673 0.069256 0.81551 -0.14136 0.82516 1.0169 -0.57086 -0.36324 -0.29946 -0.03097 0.018247 -0.17916
boston -0.15564 0.89573 -0.28029 -0.01753 0.13413 -0.101 -1.8954 0.14054 -0.64098 -0.075966 -0.70448 0.12627 -0.51151 0.39828 0.053494 -0.72117 -0.2585 -0.16947 -1.3793 0.45141 0.46818 -0.078311 -0.54636 0.071904 -0.86176 -1.6099 0.17396 -0.22364 0.16993 -1.0124 1.9848 0.42699 0.7497 -0.85074 -0.39701 -0.63296 0.007884 0.31607 1.3688 0.1338 -0.22721 -0.19089 0.015153 0.85278 -0.18927 0.7968 -0.40972 -0.14221 -0.51015 1.2253
conditions 0.28314 0.11328 -0.69806 -0.22299 -1.0791 -0.29165 0.25922 0.43384 0.33679 -0.20471 0.6637 -0.26317 0.10848 -0.10246 0.45846 1.0772 0.31038 -0.79762 0.27737 -0.75216 -0.52565 0.65225 0.25131 -0.42888 0.36043 -0.4368 -0.039203 0.33748 1.0153 1.5401 3.773 -0.046023 -0.20914 -0.92967 0.24615 -0.14116 0.44003 0.18078 -0.0095927 0.016647 -0.98157 -0.2284 1.3001 0.51241 0.38423 -0.29199 -0.05652 0.40921 0.33837 0.28466
details 1.3929 0.56252 -0.31208 0.60318 0.45229 0.10442 -0.34877 0.21072 -0.28759 -0.67384 -0.86649 0.25775 -0.51657 -0.075711 1.2064 0.11973 -0.77689 -0.8354 0.82536 -0.5679 0.78344 0.52465 0.17584 -0.33313 0.12299 -1.0458 -0.96887 0.41009 0.24376 -0.066261 2.8467 -0.59575 -0.36143 -0.67415 0.57887 0.56633 0.26569 -0.078087 -0.61086 -0.2162 0.32875 -0.0024699 0.44216 -0.026315 0.23231 -0.23415 0.32153 1.7146 0.31259 -0.07993
coalition 0.85678 -0.75092 0.9537 0.065825 0.31672 0.85626 -0.27141 0.063974 -0.6743 -1.1676 -0.42138 -1.3161 -0.49845 0.96624 -1.1233 0.1141 0.67231 -0.41519 0.45774 0.14112 -0.54737 0.22408 -0.20609 -0.10088 -0.60147 -1.1698 0.024432 -0.47846 -0.35613 1.2876 2.8327 0.50106 -1.5017 -0.091531 -0.68347 -0.1139 -0.20228 -0.39461 -0.3246 -0.16135 -0.36317 -0.085627 -0.5163 -0.45149 0.1541 0.40816 -1.6436 0.45145 0.15806 -0.015151
compared 0.072997 0.033069 0.95832 -0.56553 0.48851 0.61774 -0.1592 -1.3026 -0.62157 0.79891 0.064513 -1.1113 0.51551 -0.57469 1.0182 -0.053184 -0.61544 0.056078 -1.0231 -0.15201 0.085058 -0.16375 0.57911 -0.70134 0.067595 -0.49829 -0.21118 0.098725 0.014055 0.99636 3.0992 0.18164 1.0499 0.061563 0.33879 -0.76649 0.16109 0.75029 -0.077293 -0.49382 -0.36567 0.33176 0.57734 0.17463 -0.46704 -0.24244 -0.37897 0.28909 0.15396 0.48139
lee -0.79126 1.1586 0.2798 0.59843 -0.43431 -0.15025 -0.63398 -0.074615 -0.085398 0.043385 -0.83293 1.0862 -0.9524 -0.13686 -0.33937 0.35012 0.37064 -0.84616 0.21128 0.7184 0.076543 0.66221 0.57044 -0.92739 0.35176 -2.0215 0.36168 -0.41744 -1.2253 -0.85764 2.028 -0.41299 0.35928 0.20931 0.62828 -0.70663 0.50118 0.2693 -0.33468 -0.29417 -0.47866 0.76627 -0.32484 -0.60221 1.2574 -0.9785 -0.60765 -1.1312 0.17221 1.0618
break -0.28705 -0.30243 -0.1783 -0.10987 -0.050859 0.12751 -0.17744 1.0594 -0.23847 0.42171 -0.2365 -0.42389 -0.9417 0.68459 0.52028 -0.041713 0.3572 -1.029 -0.52059 -0.48544 0.17025 0.030926 -0.14727 0.03914 0.11438 -1.5402 0.64653 -0.32198 0.88346 -0.28024 3.2456 0.50162 -0.52768 0.51411 -0.20428 0.19845 0.12255 0.33672 0.16214 -0.45786 -0.21468 0.070855 -0.15447 0.30589 0.24846 0.13941 0.62953 -0.48261 -0.5468 -0.36781
turkey 0.38135 -0.20444 -0.57329 0.039556 0.56655 0.59311 0.40481 0.35574 0.14022 -0.56136 0.4968 -0.87828 0.56048 0.13002 0.53682 0.99199 0.71035 0.10209 -0.19113 1.3147 0.25936 -0.46464 0.40656 0.57927 0.30932 -2.2949 0.69226 0.39545 0.13891 -0.11567 2.5195 0.99871 -0.89958 0.98059 -0.66361 0.12376 -0.3936 0.49665 -0.99641 0.3154 -0.080299 0.51342 0.46186 -1.0601 0.31185 1.031 -0.5048 1.5887 -0.21222 -1.1793
daughter 0.37648 1.2426 -0.39739 -0.53184 1.187 1.5091 -0.84171 0.67881 -0.25809 -0.47984 0.17823 0.74667 -0.13473 -0.92361 0.95622 0.20569 -1.2239 -0.055043 0.56182 0.78077 -0.04409 1.5692 -0.066821 0.2514 1.0403 -2.1412 -0.31986 -0.77169 -0.029177 0.047146 1.4145 -0.23272 -0.34426 0.22699 0.88573 -0.20184 -0.15168 0.3621 0.6495 -0.68719 -0.068208 0.53595 -0.15289 -0.90156 0.38965 -0.523 -0.32187 -2.4262 0.30053 0.33888
natural 0.44265 0.84765 -0.4598 0.67993 0.13841 0.39456 -0.17343 -0.64055 0.86439 0.81624 0.75738 0.41143 1.0935 -0.30068 -0.08486 0.51784 1.087 0.45061 -0.49595 -0.6065 -0.16749 -0.28557 -0.043719 -0.86154 0.3396 -0.7524 -0.33206 0.24668 1.0021 0.71923 3.3077 -0.64755 0.1651 -0.91651 -0.035363 0.21794 -0.87897 0.37801 0.66733 0.42054 -0.21387 0.15917 0.52245 0.20587 -0.16714 0.58058 -0.36828 0.035571 0.014099 -0.24817
museum 0.41866 1.2699 -0.90373 0.066019 0.49067 -1.0735 -1.5408 -0.80936 0.25895 -0.50006 -0.02743 -0.10233 0.30374 -0.42188 0.35701 0.047107 0.50077 0.68002 -0.77587 0.34361 1.364 -0.22219 -1.6094 -0.36559 -0.19263 -1.309 -1.5814 -0.086913 -0.47749 -1.5034 1.6033 -0.61624 0.0040258 -1.2335 -0.52114 0.5952 0.42655 0.81295 0.54014 0.46162 0.53364 -0.43094 0.71415 -0.46401 -0.15577 0.81307 -0.45274 -0.59012 -0.53896 -0.34071
strike 0.49565 -0.94861 0.30577 -0.4253 -0.46691 -0.27777 -0.58274 1.0331 0.36693 0.21748 0.12657 -0.62172 -0.61731 0.76534 0.20527 -0.32902 0.32913 -0.35216 -1.2927 -0.37009 0.034595 -0.21433 -0.81641 -0.10834 -0.26742 -1.5259 0.57212 -0.24288 0.87093 0.60993 2.8074 0.37649 -0.81428 0.64675 -0.019046 -0.1676 0.72984 -0.95382 -0.12316 0.57639 -0.42091 0.45697 -0.28103 -0.30452 0.28377 0.45979 -0.18851 0.87318 -0.48633 0.052396
style -0.58847 0.37606 -1.6747 -0.47301 0.0081007 0.01325 -0.1414 -1.0794 -1.4256 0.59601 -0.56098 -0.10857 -0.24801 0.55505 -0.43314 -0.31844 -0.078398 0.2565 -0.10458 -0.80352 0.023734 0.3213 -1.0885 0.19219 -0.20512 -1.0768 -1.4797 0.53645 0.53765 0.23172 3.1881 -0.79231 -0.04074 0.1402 0.18852 0.72803 -0.10949 0.63481 -0.9631 -0.080413 0.43959 0.39459 -0.19943 0.23362 0.4731 0.31796 0.37029 -0.67488 -0.014756 0.17162
paid 0.50181 0.4211 0.54312 -0.46872 0.5352 -0.067411 -1.0152 0.28715 -0.27412 0.16153 -0.11843 0.44675 0.43134 -0.907 1.3887 -0.35502 -0.17689 0.4755 -0.0057255 -0.51948 0.83202 0.070519 -0.095382 -0.42734 -0.65613 -1.4955 0.097987 -0.64397 -0.38634 -0.0047177 2.6261 0.75294 0.15197 0.5455 0.23282 -0.006586 -0.10704 0.24154 0.27376 -0.75496 0.34265 0.39454 0.21387 0.62574 -0.57015 -1.1777 -1.3275 0.67186 -0.38978 0.26573
rock -0.6467 0.98998 -0.14379 -0.0030598 -0.65467 0.34059 -1.2852 0.11048 -0.49889 1.2157 -0.095013 -0.34539 0.24915 0.97027 -0.35134 0.16942 1.2763 0.17731 -0.90689 -0.48622 -0.022703 0.50465 0.12796 0.68351 -0.082664 -0.37146 -1.7035 0.61838 0.23596 -0.48299 3.1793 -1.5458 0.38759 0.19475 0.056217 0.023157 0.20685 -1.3984 0.29874 -0.59099 -0.097955 -0.075545 -0.7386 -0.3112 0.40171 -0.093312 -0.10007 -1.2259 -0.79443 -0.4614
costs 0.61287 -0.21801 0.93064 -0.86397 -0.39944 0.44039 -0.041371 -0.59598 1.0252 0.12035 -0.28952 -0.024117 0.078639 -0.77688 0.90397 0.15947 -0.14861 0.19706 0.20539 -1.2296 1.2232 -0.9251 -0.72525 -0.57308 -0.55884 -1.1627 -0.056971 -0.11917 0.91761 0.88118 3.4501 1.022 0.73618 0.25777 -0.053079 -0.0046925 -0.12595 0.24619 0.80249 -0.46379 -0.40598 0.14962 0.81301 0.52177 -0.45353 -0.29447 -0.0096324 0.83957 0.11338 0.97369
view 0.56616 0.67167 -0.19278 -0.37824 0.6459 -0.4243 -0.38606 -0.80468 -0.34442 0.1913 -0.48999 -0.21038 -0.016231 -0.017078 -0.4217 0.55147 0.41608 -0.61066 0.035416 -0.61576 -0.097599 0.51837 -0.47337 -0.071652 0.5492 -1.3355 -0.7694 0.5427 0.0070481 0.086856 2.8757 -0.40083 -0.10879 -1.3435 -0.38977 -0.83612 -0.31908 -0.045061 -0.91621 -0.36012 0.12146 -0.1824 0.19599 0.57707 -0.28109 0.064966 0.0183 0.097139 0.19157 -0.023458
usually 0.47939 0.30759 -0.31313 -0.47078 0.38959 0.41524 0.077847 -0.060201 -0.23406 -0.068036 0.22872 0.075107 0.91104 0.30106 0.35516 0.32206 -0.16271 0.043584 -0.27411 -1.1848 -0.095556 -0.54718 0.84406 0.71009 0.033511 -0.99343 -0.30962 0.39515 0.43081 -0.032132 3.666 0.054535 0.24327 -0.40758 0.3785 0.39631 0.30609 0.34743 -0.47051 -0.15875 -0.056496 0.20278 -0.12964 0.92894 0.31264 -0.31815 0.22013 -0.37241 -0.12417 0.13525
spanish 0.70881 -0.0045872 -1.0309 0.25621 -0.078768 -0.82823 -1.0692 0.6019 -1.2864 0.33568 1.3218 0.051735 0.50143 0.30306 0.39058 -1.601 -0.75984 -0.44891 -0.62745 -0.24528 -0.90699 -0.20482 -0.58004 0.84631 -0.28577 -1.1649 -0.25523 -0.3973 -0.38681 0.4262 3.0625 -0.52563 -0.84686 0.14209 -0.15395 0.074807 -0.7343 -0.040034 -0.3451 -0.06625 1.0024 0.23929 0.95497 -0.76798 -0.39267 -0.32809 -0.37894 0.02331 0.77921 -1.0226
royal 0.45605 0.90237 -1.5134 -0.26336 0.18158 -0.48726 -0.40357 0.71711 -0.24333 -1.6795 0.39544 0.78736 0.47365 -0.44532 -0.80121 0.19438 -0.48754 0.29726 -1.4872 -0.15224 1.3497 0.34947 -0.45022 -0.63954 -0.90507 -1.584 -1.4598 -0.62959 -0.99685 0.75989 2.2349 0.032279 -0.13264 0.26226 0.8437 0.38261 0.55965 0.031479 -0.21964 -0.51806 0.87635 -0.34091 0.31116 0.017494 -0.12176 0.10385 -1.0893 -0.82188 0.12799 -0.81195
travel 0.78945 1.1267 0.094963 -0.085176 -0.88211 -0.82305 -1.2444 -0.14937 0.80468 -0.45126 -0.018175 0.38926 0.18674 0.10705 0.76963 0.4768 -0.28126 -0.38387 -0.081783 -0.22716 0.81244 0.019555 -0.19809 1.0188 0.12298 -1.4167 0.18506 -0.1265 0.40724 0.17462 2.8151 1.2231 -0.26994 -0.068899 -0.15436 -0.041211 -0.3162 -0.11241 -0.7093 0.38703 0.2446 0.53578 1.079 0.17798 -0.18645 -0.081237 -0.077889 0.37224 0.12708 0.079093
takes 0.40764 0.69637 -0.2658 0.10773 0.62059 0.3041 0.16664 0.23153 0.3625 0.03024 -0.22907 0.1699 -0.32282 0.20944 0.62377 0.16307 0.37951 0.15222 -0.31896 -0.37402 0.09893 0.22025 -0.28298 0.38815 0.71643 -1.529 -0.1453 0.027285 0.33133 -0.1031 2.7048 0.35688 -0.73862 0.024327 -0.052603 -0.028238 -0.13771 0.23706 0.12676 -0.77487 0.14763 0.28921 -0.27724 -0.3029 -0.024717 0.14648 0.8303 -0.40827 0.38581 0.53271
books -0.03345 0.80877 -0.20659 -0.92842 0.27433 0.17549 -1.5501 -1.9302 0.42939 0.15984 -0.9263 1.1073 -0.15518 -0.3959 1.431 -0.74583 -0.33683 -0.21206 0.15386 -0.022504 1.127 0.31919 0.83898 0.48734 0.2966 -0.81942 -1.5519 -0.77488 -0.28272 -0.71643 2.6664 -0.57047 0.10581 -0.10116 -0.48662 0.63422 -0.60514 0.19788 -0.25741 -0.20731 0.95538 -0.10275 0.41266 0.7293 -0.29704 0.60264 0.29637 -0.021069 -0.65104 -0.58676
smith -0.85962 0.46651 0.14753 -0.2051 0.52174 0.61248 -1.4672 -0.02249 -0.037332 -0.52395 -0.3872 1.2307 -1.2315 -0.79008 0.25593 0.073397 0.24318 -0.58157 -0.72014 -0.2801 -0.11107 0.93732 0.337 -0.12881 -0.096838 -1.488 0.32241 -0.34781 0.016934 -0.23122 1.8073 -0.80509 0.23273 -0.46588 0.87135 -0.34764 0.27677 -0.016651 0.44481 -0.34461 0.2657 0.72069 -0.40054 -0.31029 0.0060948 0.38898 -0.31087 -0.45672 -0.52179 1.123
chicago -0.83389 0.87909 -0.30872 0.25038 0.16209 -0.32452 -2.021 -0.10332 -0.55214 0.28976 -0.34745 -0.1644 -0.40631 0.3668 -0.010752 -0.69548 -0.40647 -0.10726 -1.4113 0.47048 0.60391 -0.10165 -0.3284 0.11019 -1.0949 -1.3657 0.33617 -0.042493 0.40142 -0.82294 1.9625 0.13051 0.60116 -1.0302 -0.2291 -0.70963 -0.062353 0.21721 1.0562 0.33816 -0.49867 -0.19095 -0.021891 0.1469 0.11654 0.55076 -0.65077 -0.31648 -0.24662 1.1191
systems 0.82406 -0.34011 1.242 0.96311 -1.1098 0.05021 -0.31336 -1.3754 0.29873 -0.096475 1.01 0.77487 -0.10464 0.20789 -1.4075 0.60064 -0.92125 0.81286 0.08669 -0.65378 0.2202 -0.30182 -0.73016 -0.35807 -0.07254 -0.87197 -0.27447 -0.7527 0.59302 0.35449 3.6568 -0.47805 -0.19363 -1.1831 0.03484 0.37069 0.029948 0.31778 0.40678 0.4381 0.57789 -0.49918 0.40995 1.2452 -0.43705 0.60142 0.38562 0.54255 -0.088938 0.41254
arrived 0.83932 0.2661 -0.18971 -0.47246 0.4364 -1.3086 -1.5081 0.96514 -0.4849 -1.4153 0.2815 -0.11073 0.23442 0.080439 0.37847 0.18568 -0.85647 0.036824 -0.83198 0.069197 0.44665 0.79552 0.36387 -0.23063 0.36644 -1.5626 0.60802 0.14898 -0.42414 -0.02501 1.9011 0.42761 -0.99162 -0.02262 0.64082 -0.0091124 0.25041 0.36065 -0.29999 0.53206 -0.2748 0.37869 0.41296 -1.2402 0.4347 0.0054343 -0.51671 -0.50629 -0.28947 -0.4831
hundreds 1.1569 -0.37447 1.0013 -0.68139 -0.15843 -0.33417 -0.91782 0.27246 0.14383 -0.015527 -0.62806 -1.1401 0.72588 -0.28168 0.78875 -0.52281 0.045904 -0.0037428 -0.33437 -0.75068 0.58527 0.46272 0.29847 -0.11306 -0.21034 -1.1405 -0.046337 -0.25665 0.063187 -0.49946 3.1293 0.34312 -0.081644 -0.49104 -0.31195 0.97044 -0.079534 -0.721 -0.18039 0.48722 -0.3469 0.43569 0.64717 0.33536 0.65982 -0.16085 -1.0953 -0.27653 -0.83266 -1.5253
'd -0.024878 -0.15758 0.24102 -0.72964 0.56797 -0.50684 -0.86411 0.56073 -0.56997 0.22691 -0.32604 0.69461 -0.45436 -0.062194 1.2079 0.6443 0.15771 0.2613 -0.15347 -0.91672 -0.22884 0.63766 0.90625 0.30116 0.92036 -1.9099 -0.92906 0.43272 1.0182 -1.3505 2.7087 0.75736 -0.57371 0.31246 0.01805 -0.21779 0.42017 0.47606 0.52341 -0.57876 -0.18007 -0.016575 -0.21825 0.85162 0.074618 -0.22317 -0.11469 -0.41059 -0.14116 0.81481
hour 0.49603 0.5787 0.16638 -0.13394 0.094386 -0.32301 -0.10589 0.51931 0.11409 0.1008 -1.1256 -1.1297 -0.10757 0.57863 0.85962 -0.62181 -0.70217 0.2144 -1.3319 -0.54315 0.94991 1.0213 0.50037 0.26539 0.53437 -0.68183 0.79417 0.45981 0.58345 0.27078 3.3528 0.56603 -0.42534 0.71726 0.17917 -0.15475 0.66508 0.11239 0.17412 0.28794 -0.042736 0.63744 -0.28524 -0.072494 -0.58378 0.029726 0.71582 -0.36279 -0.41792 0.71348
response 0.75172 -0.56364 -0.054645 -0.26039 -0.15449 0.096534 0.44898 0.20912 0.097988 0.13912 -0.08801 -0.21986 0.20319 -0.095712 -0.16115 -0.065456 -0.51466 -0.46712 -0.2723 -0.36701 0.14632 0.04802 0.01293 -0.74527 0.40227 -1.6578 0.11394 0.23287 -0.014733 0.61055 3.2985 -0.12722 -0.24448 -1.2509 -0.54872 -0.28205 0.51885 -0.77222 -0.52895 -0.097042 0.020535 0.32316 -0.49831 -0.47649 0.88767 0.029566 -0.12335 1.2037 0.066576 0.8953
developed 0.82899 -0.11043 -0.17951 0.1414 -0.77058 0.8816 -0.77008 -1.3064 0.094499 0.32477 0.95316 0.43606 -0.19265 -0.16507 -0.72193 0.50236 -0.25929 0.75186 -0.24849 -0.053379 -0.10641 -0.22073 -0.20629 -0.087767 0.39985 -0.92924 -0.43844 -0.48778 -0.0093703 0.27878 3.1861 -0.71489 0.14982 -1.0246 0.20742 0.21593 -0.14945 0.90424 -0.22518 0.20866 0.15108 -0.41156 0.083768 0.13321 0.58628 0.46037 0.26606 -0.19032 -0.46985 0.24193
jones -1.3307 0.24312 0.23429 0.49286 0.81896 -0.1078 -1.0473 0.16303 -0.36935 0.023753 -0.24888 0.6513 -1.3146 -0.82309 0.69924 0.14308 -0.023339 -0.99423 -1.1502 -0.71754 0.179 0.91807 0.2173 -0.41358 0.17214 -1.0289 0.39046 -0.48866 -0.13651 -0.17561 2.0635 -0.8183 0.78945 -0.36318 0.5627 -0.86731 -0.022565 -0.64757 0.64197 -0.63232 0.12704 0.65893 -0.56155 -0.18099 0.22198 -0.32097 0.38946 -0.83587 -0.41498 0.85052
potential 1.0854 0.46105 0.95126 0.66969 0.23887 0.63287 0.13193 0.40627 0.785 0.561 -0.16928 0.17459 -0.11582 0.13849 0.45131 0.19626 0.91895 -0.37151 -0.43067 -0.9198 0.1845 -0.91836 -0.2407 -0.13197 0.012796 -1.5147 -0.25986 -0.5703 0.50268 0.46816 2.8876 0.74687 0.18387 -1.644 0.17951 0.11324 -0.5668 -0.14583 -0.38784 -0.71582 -0.47079 0.17619 0.057986 0.59048 0.45949 -0.2742 -0.050923 1.0087 0.14522 0.13566
cause 1.1322 0.14747 0.16434 -0.18466 -0.47143 1.4388 0.71446 0.78135 0.61864 0.20594 0.43364 0.070101 0.052516 -0.3708 0.23736 0.39409 -0.14853 -0.60318 -0.26755 -0.64166 -0.62525 -0.45662 0.42132 -0.33883 0.62718 -1.6358 -0.89482 -0.21618 1.0543 0.80585 3.0055 0.39413 -0.099487 -1.2947 -0.71042 -0.018395 0.21888 -0.7658 0.72606 0.4171 -0.63542 0.15135 -0.18722 0.44311 1.1302 0.18293 -0.40505 0.17468 0.40155 -0.092546
value 0.26388 0.39729 0.60522 0.028761 1.6888 -0.21428 0.39522 -0.9931 0.32037 0.89332 0.29617 0.62676 0.15117 -1.1472 0.52126 0.32538 0.24731 -0.3572 -0.2124 -0.66229 0.69077 -0.92874 -0.076353 -0.89933 -0.37021 -0.77529 -0.95652 -0.33702 0.63663 0.38326 3.4447 0.17909 0.89123 -0.060239 0.32785 -0.75589 -0.51708 0.096453 0.18994 -0.46857 0.026345 -0.50654 0.5001 0.85754 -1.056 -0.56253 -0.083023 0.92888 0.4364 0.19787
idea 0.47564 -0.016436 -0.40476 -0.53652 0.31659 0.47431 -0.67328 -0.65672 -0.65719 0.61085 -0.21261 0.51583 -0.3193 0.24221 0.35774 0.46472 0.54809 0.081627 0.36187 -0.40782 0.1841 0.3949 -0.25284 -0.0028784 0.80282 -1.8192 -0.71438 0.20725 0.61008 -0.34519 2.7285 -0.090928 -0.9176 -0.69877 -0.49492 -0.6096 -0.23785 0.34921 -0.48601 -0.1545 -0.10589 -0.31418 -0.25805 0.38646 -0.024248 0.051795 -0.25816 0.38672 -0.089668 0.36572
thomas -0.10002 0.58581 -0.18892 -0.78133 0.56788 0.77982 -1.2221 0.29163 -0.34162 -1.2892 -0.44901 1.1249 -1.2433 -0.99447 0.28163 -0.27078 0.23618 -1.1491 -0.82672 -0.4048 -0.098151 -0.067551 -0.32379 0.20813 -0.048732 -1.6105 0.084971 -0.83351 -0.98128 0.096412 1.2549 -0.90291 0.42223 -0.44529 0.24018 -0.6333 0.26302 0.49929 0.7031 0.11011 0.94033 0.82832 -0.15095 -0.11306 0.099107 0.90746 -0.13653 -0.89517 -0.72975 0.86626
& -0.93044 0.74296 -0.6499 0.53508 -0.71172 0.72826 -0.83085 -0.95423 0.37669 -0.69549 0.1586 1.3371 -0.97651 -0.80166 -0.72986 -0.20873 0.38032 0.49776 -0.38351 -0.19521 1.3085 0.3809 0.58165 0.31836 -0.4606 -0.23461 -0.92929 -0.89022 -0.30075 -0.62035 2.4133 -0.17714 0.32953 -0.17466 0.083088 0.59434 0.20788 -0.45153 0.96393 0.30143 0.61823 -0.47519 -0.3881 -0.83168 0.45779 0.68986 -0.005843 -1.3797 0.012224 0.63522
professional -1.5058 0.59432 -0.94774 0.25047 -0.35738 -0.01501 -1.0501 0.5317 -0.36641 0.13518 1.1652 0.33063 -0.353 0.65077 0.39183 -1.0234 0.23005 1.2031 -0.62526 -0.46444 -0.069124 0.66144 -0.26636 0.86185 -0.61669 -1.1649 -0.3904 -1.3234 -0.5373 0.30509 2.901 0.44642 -0.17958 -0.98022 0.44397 0.79638 -0.1815 0.57759 0.045171 -0.91778 0.17393 -0.63065 0.24852 0.71628 -0.13022 -0.60415 -0.2412 0.40821 -0.11908 0.36694
domestic 0.021983 -0.38215 0.059468 0.16985 0.14733 0.47276 -0.2295 -0.85297 0.68853 -0.0025377 0.46954 0.13383 0.11763 0.12412 0.73265 0.064745 -0.26025 0.22999 -0.13171 -0.51112 1.0555 -0.60524 -0.30102 -0.1364 -0.26775 -1.2154 0.40627 -0.25635 0.35532 1.1554 3.3191 1.1373 0.88251 -0.1641 -0.25736 0.091953 -0.83226 -0.055315 -0.74984 -0.4306 -0.88725 0.056842 0.7912 -0.16911 0.24991 0.0095882 -0.66385 0.6941 0.6145 0.0409
credit -0.14507 0.18523 0.87624 -0.40109 -0.54593 0.27876 -0.53844 -0.073749 0.033542 0.29605 -0.015165 0.97952 -0.39951 -0.22479 0.39135 0.18065 -0.099005 -0.56547 0.81349 -0.29484 1.1046 -0.53413 -0.60684 -0.14538 -0.60555 -1.3484 -0.17349 -0.22012 -0.10161 0.059905 3.1936 0.71105 1.2331 0.041516 -0.049376 -0.075647 -0.66999 -0.63843 0.92575 -1.3003 -0.1455 -0.017748 0.67626 0.21389 -0.53501 -0.91446 0.099732 1.0489 0.73924 0.3247
changed -0.40038 -0.19333 -0.24529 -0.41109 0.18765 -0.10937 -0.7123 -0.50477 -0.88026 -0.20168 0.55995 0.36988 -0.44298 -0.43455 0.39829 0.59632 -0.92532 0.002658 -0.23751 -0.16468 0.21243 -0.029808 0.23442 -0.065709 0.21288 -1.3178 -0.58154 0.15855 0.26199 0.1017 2.9192 -0.36256 0.037501 -0.50636 0.10583 -0.66162 0.15487 0.17423 -0.45891 -0.32893 -0.43686 -0.54473 0.022409 0.21819 -0.8106 -0.049809 -0.079095 -0.17538 0.016698 0.36641
gaza 0.65633 -0.40751 0.69378 -0.87471 0.07949 -0.35148 -0.1698 0.83047 0.49122 -0.6418 -0.4626 -1.842 -0.36102 0.018754 -0.47508 1.3826 1.0125 -0.73312 0.24531 1.4276 0.72488 1.0651 -0.13268 0.14958 -0.25086 -1.0413 0.14817 0.4395 1.1863 0.73067 2.7875 -0.13127 -0.79145 0.76468 0.30936 0.90488 0.68386 -1.2172 -0.63803 1.3166 -0.44076 0.19425 -0.1168 -1.0019 0.608 -0.58037 -0.80966 0.65744 -0.37597 -0.80196
married -0.021431 0.8793 -0.49377 -0.93978 1.1179 1.6358 -1.1842 -0.035089 -1.1325 -0.5618 0.60908 0.68026 0.15453 -1.2219 1.2622 0.19242 -0.61728 -0.056418 0.09227 0.90138 0.25716 1.3296 0.30919 0.24753 0.78102 -1.212 -0.0057033 -1.3537 -0.32072 0.21462 1.2942 -0.23258 -0.21289 -0.10323 0.76621 -0.72078 -0.090932 0.61474 0.73405 -0.4609 -0.06689 0.26598 0.26786 -0.84643 -0.65934 -0.83892 -0.85197 -2.4383 0.032976 0.83158
co. 0.15122 -0.065602 0.41077 1.6064 -0.064725 0.31773 -1.2095 -0.62873 0.037185 -0.12067 0.024725 0.9305 -0.83824 -1.063 -0.51791 0.34198 -0.78047 0.92429 -0.81551 -0.88909 2.4974 -0.42259 -0.47861 -1.1485 -1.0165 -1.4035 -0.48832 0.038944 -0.19285 -0.74423 1.957 -0.39076 1.1959 0.74776 0.21301 -1.4561 -0.98263 0.11405 1.5748 0.078641 0.16386 -0.20443 0.19776 -0.76122 0.7547 0.43005 -0.77985 0.17369 -0.090891 0.94073
launched 0.86323 -0.52353 0.47888 0.27485 -0.90868 -0.057893 -0.98245 -0.52866 0.40757 -0.11603 -0.0054625 -0.45446 -0.6924 0.21731 -0.3949 -0.37388 -0.43241 0.40875 -1.1106 0.68638 1.1636 0.23334 -0.066356 -0.52115 -0.5974 -1.4775 0.15025 -0.60076 -0.28785 0.42175 2.6606 -0.22647 -1.2753 -0.010387 -0.38173 0.12942 -0.021133 -0.30895 -1.0894 -0.29914 0.24226 -0.36745 -0.40773 -1.1576 0.41318 -0.19798 -0.2546 0.10077 -0.17346 -0.17254
web 0.68266 0.22839 1.1513 0.89105 -0.23053 -0.61345 -1.5852 -1.5529 0.81676 0.39063 -0.50144 -0.051809 -0.070444 0.3357 0.50445 -0.23162 -0.59991 -0.13734 0.61181 -0.35298 0.50895 0.14167 -0.089788 1.3181 0.23178 -0.99081 -0.622 -0.40228 -0.023127 -0.59567 3.0022 -0.44353 -0.29758 -0.89958 -1.1009 0.38237 -0.46765 -0.22752 -0.60751 -0.57451 1.4464 -0.080568 -0.32007 0.93964 0.39809 -0.17221 0.3183 0.39888 0.43165 0.16452
p.m. 0.35995 0.81283 0.35406 1.2691 0.61409 -1.0657 -0.80308 0.76842 -1.4566 -1.532 -1.1441 -1.0255 0.067616 1.0685 1.3757 0.1395 -1.7664 -0.1963 -2.0121 0.18035 1.4025 0.36555 0.71459 0.90059 0.16407 0.066244 0.94919 0.18528 1.1857 -0.20458 2.6534 0.3302 -0.61065 -0.33447 -0.38014 -0.33386 0.5121 -0.94519 1.3238 0.70888 0.15875 -0.14251 -0.34532 0.093442 -0.30111 0.81194 1.0939 -0.14181 0.31559 1.2167
muslim -0.10121 -0.48456 -0.48777 -1.0298 1.7648 -0.0059321 0.11885 -0.29034 -0.13485 -0.11574 -0.043412 -1.6815 0.21663 -0.16416 -0.14943 0.31336 0.05128 -0.63145 0.19956 1.332 -0.27993 0.77466 0.14641 1.2436 -0.72511 -1.9717 -0.57203 -0.91874 -0.27399 0.38069 2.7051 0.4345 -0.60886 0.31162 -0.07067 -0.04434 -0.64789 -1.1363 -1.1965 1.2007 -0.52347 0.6152 -0.24992 0.53829 0.93933 0.21826 -1.1797 0.07039 -0.72334 -1.4829
source 0.63446 0.74974 0.36357 0.56332 0.27889 -0.22208 -0.32102 0.06528 0.68481 0.24757 0.4249 0.27777 0.43904 -0.179 0.2284 0.28958 0.080389 0.065725 0.23358 -0.078773 0.097658 -0.37369 0.49679 0.16072 0.21206 -1.4056 -0.47978 0.35211 0.34842 0.73774 3.2393 -0.92294 -0.19829 -0.97573 -0.010649 0.3677 -0.31193 -0.3742 0.26241 0.30146 0.89109 0.22297 -0.17102 -0.018174 0.16795 0.084336 -0.33602 1.3886 0.48526 -0.33878
everything 0.11207 -0.22921 -0.00036378 -0.2424 0.5936 -0.19078 -0.41388 -0.17628 -0.043583 0.40402 -0.1837 0.55425 -0.72711 0.045503 1.0036 0.57577 0.30914 0.18026 0.61226 -0.96671 0.12878 0.60311 0.25658 -0.02559 0.85986 -1.5616 -1.0016 0.52673 1.4417 -1.0787 2.9459 0.51601 -0.50351 -0.18082 -0.45869 0.38486 -0.062819 0.49224 0.23312 -0.07337 -0.087553 0.049002 0.22472 0.36751 0.026409 0.52038 -0.033511 -0.16314 -0.015554 0.27371
weekend 0.40263 0.4814 -0.28014 0.38132 -0.33536 -0.87484 -1.3596 0.65555 -0.26091 -0.35611 -0.98034 -1.1924 -0.4178 0.25241 1.2517 0.024388 -0.23347 -0.56007 -1.1901 -0.12861 0.48992 0.33151 0.13576 0.3791 -0.11017 -1.007 0.03545 0.36759 0.034175 0.3071 2.8248 1.2715 -0.48017 -0.0071603 -0.044587 -0.065761 0.17697 0.020181 -0.36448 -0.52221 -0.58872 0.20609 -0.42906 -0.30488 0.49023 0.45425 -0.11694 0.38761 0.18519 0.0056925
camp 0.359 0.7235 0.15195 -0.63748 -0.02733 -1.2531 -1.127 0.78125 0.012127 -1.0915 -0.25491 -1.1884 -0.011491 -0.57068 0.35244 0.20479 0.77614 0.19862 -0.67735 0.80641 -0.85782 0.37337 -0.076863 0.31537 -0.91289 -1.4499 0.10259 0.080755 0.4168 0.13201 2.1599 -0.32924 -1.1552 -0.63183 0.083571 0.86752 0.38869 -0.48285 0.078249 0.057599 -0.21004 -0.06844 -0.30115 -0.10176 0.87875 -0.9523 -0.089129 -0.53805 -1.076 0.24003
quickly 0.56036 -1.1257 0.55507 -0.71007 0.059383 -0.29997 -0.78756 0.70269 -0.2864 -0.15299 0.36951 0.28308 -0.61024 0.0058911 0.22412 0.64999 -0.23358 -0.47678 -0.12418 -0.7531 0.26407 -0.049331 0.59658 -0.23219 0.55754 -1.5649 0.2196 0.26784 0.72161 -0.13073 3.0699 0.21293 -0.14069 -0.87782 -0.36846 0.11815 -0.27351 0.51589 -4.399e-06 -0.54707 -0.26419 -0.23358 -0.27178 -0.16913 0.074022 0.10568 0.085594 -0.5575 -0.27034 -0.2592
owned 0.65972 -0.042739 0.56583 1.0035 0.047822 0.15271 -2.1408 -0.43156 0.14774 -0.12602 0.57659 0.34709 0.026954 -0.43579 -0.1659 0.3798 0.1279 1.3138 -0.13297 0.090994 1.093 0.05965 -0.69134 0.27343 -0.98614 -1.1787 -0.52356 -0.21807 -0.0077309 0.068116 2.4466 -0.77499 0.51736 0.76116 -0.045319 -0.56373 -0.46965 0.13394 0.33431 0.32799 0.46214 -0.29746 0.36727 0.13203 -0.72273 -0.1919 -2.4841 -0.66773 0.049718 -0.19964
finance 0.26065 -0.2486 0.33918 0.17447 0.16059 -0.17241 -0.49592 -1.1057 -1.1515 -0.67266 -0.52137 0.98864 -0.39519 0.38565 0.46111 0.17909 0.53703 -0.071299 1.0576 0.32059 1.5695 -0.58055 -0.54938 -0.69697 -0.4368 -1.3162 0.73868 -0.56189 -1.5138 0.9422 2.8278 0.18323 -0.023847 0.12808 -0.23547 0.20016 -0.6252 0.67822 1.1125 -0.16363 -0.66115 0.64392 0.31846 -0.40373 0.19716 0.045172 -0.92688 1.5485 1.5444 0.51316
palestinians 0.48904 0.35171 1.0129 -1.5514 0.68421 0.314 0.091613 0.62401 -0.84416 -0.20421 -0.87692 -1.8327 -0.39276 -0.39229 0.33322 0.99457 1.4508 -0.95263 0.75644 0.75153 0.54825 1.353 0.22897 -0.22617 0.15308 -0.82956 0.21151 -0.18552 0.87831 0.13031 2.9713 0.29857 -1.047 0.26313 0.10782 0.20489 0.91558 -1.3046 -0.91317 0.96433 -0.65086 -0.54333 0.38119 -0.29073 0.62396 -0.77198 -1.1622 1.297 -0.93289 -1.0663
eventually 0.45884 -0.52607 0.40765 -0.54166 -0.018114 0.46336 -0.80958 0.68447 -0.29841 -0.066209 0.58954 0.5361 -0.60618 -0.33766 0.43601 0.41102 -0.045967 -0.14411 -0.44534 -0.064876 0.41888 -0.11733 0.32641 -0.10112 0.22617 -1.6344 0.1819 -0.5375 0.41208 -0.24523 2.8581 -0.14317 -0.22826 -0.58026 -0.011533 -0.00091238 -0.088539 0.2628 0.104 -0.57979 -0.31438 -0.48374 -0.15636 -0.17076 -0.46584 -0.11466 -0.11369 -1.1199 -0.60504 -0.39564
measures 0.54757 -0.61153 0.0038355 -0.82243 -0.50716 0.10968 0.92464 -1.0457 0.18433 0.040012 -0.23873 -0.089457 0.25788 0.034329 -0.059464 0.51498 0.44982 -0.8885 0.45824 -0.64114 0.47216 -0.70524 -0.49642 -1.2028 -0.056484 -1.2346 0.70746 0.070713 0.14801 0.43958 3.6224 0.65047 -0.72667 -0.6328 -0.31903 -0.064786 0.77768 -0.21427 -0.60869 0.0047274 -1.0217 0.021124 1.1308 -0.24116 0.47006 -0.13619 0.05815 1.1938 0.99141 0.42607
cities 0.76318 0.26725 0.067232 0.15917 -0.83832 -0.78846 -0.59164 -0.13984 -0.46017 0.087111 -0.20094 -1.3888 0.53633 -0.38312 -0.19094 0.34316 0.14326 0.28515 -0.50866 0.44557 0.45228 -0.64073 -0.22415 1.0168 -0.61882 -1.1178 -0.63547 -0.20116 0.24885 -0.61502 3.1172 1.0801 0.42404 -1.0488 0.31394 0.11297 -0.30029 0.16781 -0.48884 1.1999 -1.1327 0.27591 1.0948 -0.21245 -0.37509 0.73059 -0.91769 -0.18994 0.13861 -0.58989
afp 0.30861 -0.052346 0.35198 0.77516 0.88257 -1.3497 -0.36648 0.53159 0.12768 -1.4968 0.31252 -0.53935 -0.86576 -0.25077 0.79403 0.33113 -0.23992 -0.48663 -0.047735 0.40169 0.29432 1.1391 0.56636 0.24 0.34873 -1.0038 0.043929 -0.067199 -0.79353 0.77046 2.282 -0.41249 -0.45824 -0.12504 -0.17614 -0.11047 0.81371 -0.49262 0.35318 1.2604 0.41917 0.6964 0.11533 -0.98178 0.76725 -0.28529 -0.93062 0.90295 0.90451 0.017557
blue -0.83751 0.69563 -0.51408 0.23689 0.59192 -0.027491 -1.2076 -0.98796 -0.27658 -0.4618 0.4715 0.13072 0.50393 0.50556 -0.66766 0.069073 -0.60984 -0.22776 -1.2481 -1.3521 -0.56051 -0.17952 0.22886 -0.69244 -1.1734 -0.98778 -0.81551 1.5513 0.36517 -1.1162 2.632 0.21987 0.10695 0.28438 -0.10348 -0.29667 -0.17645 -0.75838 0.085523 -0.83641 -0.12174 -0.063165 -0.072053 -0.30712 0.61861 -0.30867 0.012374 -1.1966 0.041525 -0.23966
richard 0.099154 0.32037 -0.38847 -0.28594 -0.045048 0.49237 -0.63172 0.21286 -0.53624 -0.78242 -0.87129 0.9794 -1.3704 -0.32966 0.34688 -0.35752 0.79475 -0.40199 -0.66923 -0.62291 0.44448 0.13689 -0.083004 -0.10957 -0.066617 -1.5857 -0.11533 -0.95595 -0.55111 0.54566 1.3322 -1.3256 -0.033464 -0.39861 0.62134 -0.6973 0.060874 0.56463 0.32872 0.029382 0.20836 1.3694 0.069765 -0.83558 0.67983 0.42048 -0.25864 -0.80684 -0.76432 1.5883
starting -0.23808 0.17827 -0.025986 -0.1757 -0.26829 -0.45608 -1.2522 0.13816 -0.45883 -0.28926 0.079508 0.066435 -0.75401 0.20252 0.87392 0.22242 -0.052907 -0.26893 -1.001 -0.12613 0.09281 -0.57239 0.15901 0.21035 0.018094 -0.83122 0.60467 -0.40087 0.53736 -0.10925 3.2888 0.61686 -0.32033 -0.16548 0.40937 0.2326 0.32599 0.52681 -0.13065 -0.077236 -0.69663 -0.27957 -0.39884 0.15339 -0.32385 0.31734 0.71954 0.084655 -0.36516 0.30977
ready 0.36825 -0.20512 0.36656 -0.23705 0.6209 -0.95098 -0.40279 0.57984 -0.24161 -0.25024 0.19341 0.19736 -0.30341 0.29501 0.5696 1.0287 0.48469 0.14218 0.079147 -0.73628 0.14101 0.24264 0.28433 -0.097509 0.22019 -1.5071 0.23023 0.11303 0.71564 -0.50817 3.0144 0.8897 -1.4947 0.37695 -0.083879 0.10678 0.39346 0.32929 -0.2896 -0.83484 0.014825 -0.26343 0.02237 -0.5636 0.58192 0.4164 -0.021004 0.40331 -0.47358 0.54165
plant 1.3168 0.33647 0.23596 0.94903 -0.3139 0.49869 -0.58349 -0.1452 0.57425 -0.15348 0.72546 -0.61848 0.90902 -1.0721 0.35988 0.77143 0.12515 2.0356 -0.39094 -0.79246 0.29156 -1.5465 -0.35781 -0.44229 -0.11487 -1.1789 0.45206 0.63869 0.81848 -0.13149 2.5388 -1.2112 -0.41811 -0.42627 0.28182 -0.058503 -0.099531 0.84381 1.0907 0.35249 -0.19847 -1.1355 0.26628 -0.55266 1.5585 1.0816 -0.37911 -0.064558 -0.72599 0.1685
build 1.2426 0.56913 1.0025 0.13351 0.01247 -0.26163 -0.64717 -0.36756 -0.015053 0.28383 -0.202 -0.11345 -0.070683 -0.054243 -0.70275 0.77443 0.96237 1.1434 0.25683 -0.44676 0.5363 -0.28462 -1.2776 -0.66336 0.026814 -1.164 0.21594 -0.36506 0.64263 -0.43925 3.3075 0.3918 -0.64493 -0.24103 0.038335 0.33088 -0.050704 0.52266 -0.28492 -0.2076 -0.20324 -0.9633 0.39105 -0.028234 0.17357 0.5589 -0.57812 -0.15275 -0.617 -0.19918
designed 0.75088 -0.019362 0.35657 -0.56497 -0.50137 0.53958 -0.40653 -1.3033 -0.25988 -0.078857 -0.10302 0.61822 -0.26861 0.30624 -0.66425 0.43916 0.37127 0.18958 -0.13864 -1.2986 0.77946 -0.41873 -1.2564 -0.58199 -0.059184 -0.99263 -0.2392 -0.4856 0.14583 -0.29716 2.6548 -0.45466 -0.79958 -0.96809 0.28801 0.65376 0.83405 0.77366 -0.70881 -0.052301 0.58915 -0.21024 0.50535 -0.32481 0.43257 0.39042 0.049163 -0.7543 -0.05252 0.35656
certain 0.41037 0.40588 -0.43068 -0.075997 0.34582 0.74562 0.43342 -0.13671 -0.10592 0.40986 0.34323 0.59008 0.24007 -0.30059 0.31294 0.59095 0.12261 -0.608 0.46471 -1.0619 -0.16175 -0.28811 0.35303 0.072481 -0.056586 -1.282 -0.78194 -0.22795 0.75275 -0.081371 3.3877 0.43133 -0.14716 -1.1833 0.44901 0.028686 0.076564 -0.025213 -0.64094 0.22569 -0.15388 0.022011 0.37519 1.0418 -0.14522 0.035888 -0.1616 0.65752 0.015154 0.059127
voters -0.3889 -0.41914 1.3686 -0.60842 0.33832 0.77319 -1.0201 0.34286 -1.0283 -0.1767 -0.96065 -1.8084 1.3152 -0.043693 0.055858 -0.061845 0.010747 -0.83579 0.34252 -1.0327 -0.16451 -0.027726 0.64486 0.73696 0.51989 -1.7577 -0.6203 -0.13742 -0.28497 -0.17514 2.5179 1.3071 -0.93718 -1.6271 -0.47171 -1.1028 -0.57817 -0.020077 -0.30468 -0.97854 -0.54141 0.36853 -0.31371 0.4334 -1.0272 0.362 -1.1349 0.45023 0.68028 0.070163
modern -0.028633 0.31988 -0.96725 -0.09544 -0.26941 0.11612 -0.23108 -1.1441 -0.70938 0.45959 0.41907 -0.0053053 0.44005 0.2262 -0.46838 0.20649 -0.061823 0.99877 -0.30061 0.13295 0.11968 -0.23296 -1.0298 0.42153 0.80171 -1.3953 -1.7382 -0.46888 0.087799 -0.14801 3.0259 -0.744 0.19867 -0.84722 0.21067 0.49178 -0.21644 0.80153 -0.79373 0.77759 0.056637 -0.10053 0.7877 0.21747 0.034979 1.158 0.16062 -0.33768 -0.17131 -0.49969
fans -0.28285 0.34151 0.23447 -0.30231 -0.031071 -1.0431 -1.4055 0.66233 -1.4953 0.97007 0.055138 -0.39016 -0.014622 -0.40974 1.3717 -0.2675 0.38763 0.58738 -1.3843 -1.2964 -0.67156 0.45241 -0.025596 0.86562 0.20373 -1.1942 -0.291 0.32527 0.097193 -1.1473 2.5845 1.6283 0.4105 -0.57414 -0.72378 0.42034 0.35648 -0.82227 -0.56206 -0.76289 0.52827 0.22602 -0.85054 0.89735 0.68182 0.25913 -0.77229 -0.070548 -0.92152 -0.74641
commercial 0.52029 0.0036254 -0.0072793 0.70792 -0.42882 -0.010195 -1.283 -0.82059 0.9342 0.42441 0.24364 0.2847 0.31132 0.41966 -0.27992 0.20349 -0.02576 0.79557 -0.34576 -0.26437 1.6529 -0.20901 -0.68036 0.18625 -0.43672 -1.0544 -0.083639 0.11735 0.68884 0.20974 3.2564 -0.03164 0.46439 -0.087774 0.27036 0.043023 -0.34769 -0.040078 -0.8151 0.17002 -0.067881 -0.14425 0.48078 0.14452 -0.25736 -0.32657 -0.82513 0.44992 0.34643 0.13387
bid 0.76789 -0.067233 0.4531 0.96505 -0.15841 0.4327 -0.49203 0.49794 -0.19198 0.55338 -0.23396 -0.34721 -0.47091 -0.21079 0.18372 0.70591 0.51726 -0.39791 -0.70437 -0.25976 1.0692 -0.085624 -0.66257 -0.59113 -0.68551 -1.8398 0.51206 -0.36999 -0.3006 0.26613 2.3136 0.85488 -1.3163 0.54182 -0.11545 -1.1327 -0.67326 0.08254 -0.26818 -1.6244 0.11019 -0.31766 0.070608 -0.30029 -0.17792 0.22005 -0.61652 0.86451 0.30947 -0.38101
provided 0.52014 0.38829 0.11381 -0.095386 0.068108 0.097393 -0.76423 -0.074335 0.57425 -0.15391 -0.039255 0.2849 0.33124 -0.38627 -0.14163 -0.23956 -0.21116 -0.090305 0.18066 -0.50338 0.59891 0.19354 -0.012534 -0.44503 -0.16047 -0.8678 -0.072748 -0.34815 -0.053666 0.0037205 3.212 -0.24305 -0.0017586 -0.73027 0.64888 0.62735 0.45945 0.24528 -0.3262 -0.10301 0.7031 -0.017958 0.080254 0.0027417 -0.47416 -0.20116 -0.30988 0.84034 -0.029246 0.18248
constitution -1.6496 0.047368 -0.43291 0.14759 -0.087895 0.28754 -0.29886 -0.92658 -0.2204 -1.062 -0.49261 0.14111 -0.32962 0.14287 0.56948 0.30479 -0.71092 -1.658 1.5193 0.31669 -0.19283 0.076937 -0.038745 0.17595 0.017539 -1.4074 -0.061173 -0.95233 0.50176 0.29388 2.1895 -0.74902 -2.3999 -0.39563 -0.669 -0.60377 0.54745 -0.18441 -0.46478 0.33068 0.08381 -0.25434 0.69937 0.29538 -1.8106 2.0134 -0.52641 0.0052864 -0.17509 -0.11853
dropped -0.73441 -0.66014 0.98143 0.25927 0.67375 0.37267 -0.77789 -0.42577 -0.16257 0.072154 0.43856 -0.58443 -0.55185 -0.27216 0.46056 0.12903 -1.1517 -0.55703 -1.4038 -0.40751 0.42245 0.13364 0.35664 -0.84194 -0.47947 -1.2175 0.69577 0.15386 0.29503 0.18022 2.7856 0.037798 0.66953 0.70809 0.60177 -0.74071 0.17916 0.019606 0.33512 -0.55194 -0.27973 0.10908 0.60234 -0.13575 -0.046738 -0.11454 -0.018279 -0.11552 0.38034 -0.31104
brother 0.38241 0.56538 0.17174 -0.32832 1.1811 0.64141 -0.75489 0.76061 -0.84549 0.067996 0.40488 1.3168 -1.039 -0.36122 0.74153 -0.20821 -0.46036 0.030236 -0.2302 0.59638 -0.48645 0.69894 0.16648 0.21533 0.2518 -2.0648 -0.20365 -1.1691 -0.1263 0.1645 1.5242 -0.32779 -0.42933 -0.11819 0.77706 0.26428 -0.0004162 0.41256 0.34926 0.24193 -0.09411 1.1235 -0.8575 -0.47789 0.45681 -0.23303 -0.93793 -1.7232 0.091327 0.19521
canadian -1.3156 0.32637 -0.26136 0.2245 0.1606 0.54859 -1.4823 0.11134 0.56203 -0.73024 1.0907 0.14896 0.5381 0.70565 0.059538 -0.26862 0.39618 -0.047937 -1.1397 -0.3358 0.847 0.2914 -0.39779 0.31489 -0.58002 -1.3253 -0.47449 -0.8454 -0.60191 0.64494 2.0943 -0.34479 0.0082923 -0.15634 0.20007 -0.44347 -0.17446 -0.47847 -0.096943 -0.41283 0.29901 0.25059 1.1155 -0.95187 -0.09604 0.018788 -0.92339 0.2649 -0.021092 0.02992
drive 0.021706 -0.031553 1.2017 -0.33133 -0.43952 -0.091586 -0.94755 -0.4564 0.59854 0.5455 -0.87627 -0.51095 -0.88343 -0.31626 -0.51718 -0.044612 0.3896 0.36602 -0.13686 -0.65133 0.078033 -0.2325 -1.1512 0.2373 0.27838 -1.513 0.48321 -0.10623 1.1215 -0.45096 2.9153 0.18543 -0.85901 0.33001 0.5974 0.11189 -0.099407 -0.15986 -0.17952 -0.097396 -0.10677 0.16816 -0.72836 -0.16249 -0.23042 0.18382 0.74292 -0.63151 0.12095 -0.11623
goals -0.45122 0.32643 0.10694 -0.46137 0.97197 0.40123 -0.52597 -0.69786 -0.65567 0.85746 0.31085 0.22237 -1.7746 -0.21307 -0.042811 -1.2857 1.3932 -1.3551 -1.1324 0.16871 -1.1524 -0.11719 0.15077 -0.61886 -0.047532 -0.10682 1.0996 -0.70686 0.022994 -0.65391 2.8542 1.8338 -0.11767 -0.4934 0.30295 0.22928 0.34286 1.3653 -0.10581 -0.055441 0.068155 -0.48228 0.44613 -0.57738 -1.2336 0.73657 0.17856 1.1649 0.81942 -0.08945
negotiations 1.1279 -0.033939 -0.73528 0.44952 -0.13335 0.16439 -0.54304 1.2756 -0.56936 -0.18578 -0.17366 -0.15542 -1.4767 0.56588 0.48944 0.69802 0.71716 -0.7858 0.86933 -0.20486 0.97768 0.35832 -0.0088638 -0.28429 0.032624 -1.0657 1.068 0.10168 0.31963 0.5362 3.2077 -0.27847 -1.617 0.16005 -0.011218 -1.0428 -0.46958 0.0081689 -0.76527 0.18925 -0.8496 -0.89228 -0.31585 -0.57622 -0.17378 -0.4289 0.095681 1.5089 -1.0475 -0.24793
affairs -0.64537 0.47127 -1.3816 0.70834 0.55707 -0.44276 0.041527 -0.49989 -0.094051 -1.9389 -0.027972 0.84601 -0.26505 0.40066 0.075834 -0.062202 0.19117 -0.31743 1.1807 0.82086 0.70375 0.91487 0.30379 -0.19302 0.17559 -1.3848 0.58255 -0.53269 -1.2893 1.0871 2.7895 0.1886 -0.19734 -0.68848 -0.95588 0.39137 -0.51534 -0.10573 0.013407 0.99523 -0.56861 1.0682 0.32956 -0.40299 -0.24979 -0.44924 -1.1295 0.69329 0.49902 0.63298
unit 0.80716 -0.73568 0.46441 0.38817 0.81285 -0.071391 0.086632 -0.37521 0.81583 -0.89593 1.1361 0.013695 -0.58945 0.061079 -0.87372 -0.19459 -0.81176 1.1079 -0.92904 -0.23495 0.78353 -0.34799 -0.4424 -0.34623 -1.8615 -1.1451 -0.5953 -0.43875 -0.014158 0.46439 3.0388 -0.32576 0.30089 -0.29625 0.34649 0.28405 -0.0914 -0.35001 0.71066 -0.18158 0.60715 -0.45332 0.24592 -0.29605 -0.18114 -0.35076 0.11465 0.13875 -0.38471 0.84036
questions 0.33409 0.41048 0.097718 0.1824 0.37572 0.19732 -0.0018201 0.26661 -0.21768 -0.60361 -1.4803 0.30302 -0.42344 0.11002 0.82706 -0.14026 -0.55799 -0.76903 0.56132 -0.91551 0.48063 0.80385 0.7607 0.18617 1.1174 -1.8839 -0.0081789 0.012844 -0.1143 -0.16558 2.5268 0.068262 -0.23514 -1.3838 -0.31208 -0.28143 -0.45106 -0.13011 -0.144 -0.26303 0.20992 0.28024 0.19878 1.2869 0.14261 0.40745 0.508 1.4671 -0.11831 0.23719
significant 0.61393 0.40815 -0.044985 0.063411 0.03527 0.76002 -0.19531 0.096381 0.49865 0.39966 0.063319 -0.15671 0.065488 -0.65398 -0.011089 0.093062 0.70322 -0.59905 -0.18386 -0.39499 0.13673 -0.99324 -0.47882 -0.70452 0.10841 -1.0155 -0.99571 -0.31014 0.3633 0.78607 3.5403 0.043736 0.81082 -1.3017 0.11136 -0.058265 -0.23817 0.30033 -0.44623 -0.0031902 -0.68935 -0.022344 -0.14733 0.056856 -0.28618 -0.065032 -0.26024 1.0788 -0.18566 0.11042
create 0.88381 0.068062 0.17686 0.27957 0.023762 0.37138 -0.022752 -0.77311 0.14423 0.56969 -0.05956 0.074802 0.076397 0.36677 -0.15239 0.41937 0.97947 0.11217 0.50954 -1.0333 0.54731 -0.23514 -0.55706 -0.13631 -0.06666 -0.73676 -0.65353 -0.39306 0.63081 -0.23663 3.5432 0.33846 -0.66564 -0.96229 -0.69324 0.41779 -0.64705 -0.061591 -0.19988 -0.55846 0.027048 -0.22621 0.067821 0.029326 -0.098893 0.45022 0.11204 0.073438 -0.40008 0.0019421
bomb 1.4957 -0.67816 1.3532 -0.1335 0.99695 0.10635 -0.10827 -0.017678 0.61165 -0.16913 -0.31652 -1.4458 -0.76267 0.88573 0.040918 0.13876 -0.28902 0.87932 -1.4788 0.38589 0.81966 0.49494 -0.097005 0.39161 -0.27758 -2.1246 -0.34541 0.673 1.1177 -0.34464 1.9558 -0.69335 -0.84311 -0.65663 0.84423 1.0876 0.88087 -0.41233 -0.11125 0.99047 0.0064734 0.19885 0.25912 -0.90303 1.5624 0.7171 -0.1602 0.63187 0.97729 -0.86762
warned 0.50068 -0.55056 0.6691 -0.19892 -0.32341 -0.63865 -0.27441 0.34736 0.046491 -0.58449 0.10507 0.088167 -0.54562 0.076922 0.478 0.84658 0.38733 -0.80332 0.22437 -0.31431 -0.07741 0.094779 0.096822 -0.36356 0.24347 -2.0101 0.33039 0.10254 -0.43598 0.9614 2.4102 0.30397 -0.30304 -0.51928 -0.93228 -0.67063 -0.15956 -0.73781 -0.09832 0.32779 -0.56043 0.90324 0.3628 -0.7389 1.2628 0.18063 -1.0056 1.165 0.18465 0.21692
religious -0.32949 0.48522 -1.179 -1.0748 1.3739 0.38945 0.26718 -1.0836 -0.30237 0.54839 -0.36232 -0.67537 0.31515 -0.25528 -0.36507 -0.023073 -0.13242 -0.72778 0.71712 0.55316 0.19832 0.60146 -0.24189 0.47251 -0.35401 -1.5918 -0.74019 -0.98248 -0.10131 0.33722 3.096 0.35137 -0.5045 -1.2756 -0.83118 0.063713 -0.19518 -0.71122 -1.0747 1.512 -0.28197 -0.046134 -0.47355 1.5741 0.36803 0.42689 -1.0499 0.13812 -0.44665 -1.1001
minute 0.29702 -0.45371 0.080791 -0.5374 0.96474 -0.77193 -0.4339 0.82998 0.46804 0.72868 -0.26724 -0.3093 -0.63944 0.50619 0.46308 -1.4101 0.30175 -1.8098 -1.6352 -0.53685 0.0013204 -0.11472 -0.058847 -0.19623 0.53208 -0.91628 1.2773 0.27195 -0.15189 -0.56802 2.6593 0.85145 -0.43518 0.65668 -0.15761 0.52973 0.6451 1.2352 0.14213 -0.3809 1.0825 1.0094 -0.65124 -0.58772 -0.80171 0.37578 1.1585 0.17056 0.4578 -0.47798
figures -0.2646 0.033744 0.42917 -0.24241 1.1551 0.019256 -0.71497 -1.0493 -0.34472 -0.039793 -0.012944 -0.52714 -0.22455 -0.07258 1.0776 -0.27015 -0.10171 -1.024 -0.20101 -0.71435 0.099108 -0.4838 0.35612 -0.44272 -0.14725 -0.65262 -1.3428 -0.14326 -0.80152 0.66119 2.8928 -0.089514 0.94729 -0.69543 0.15343 0.18765 -0.020668 -0.12363 -0.71732 -0.1554 -0.66403 0.54344 0.089431 -0.24353 0.38457 -0.30504 -0.37402 0.73264 0.42643 -0.75691
victims 1.4129 0.1148 0.41823 -0.64087 0.82524 0.88497 0.10485 0.7724 0.55614 -0.35037 -0.25694 -0.62666 0.33146 -0.43152 1.2387 -0.91489 -0.53688 -0.3265 0.058565 -0.046163 -0.28962 0.83776 0.064442 -0.47392 0.011752 -1.6028 -0.74985 -0.52996 0.091563 -0.62549 2.3933 0.55749 -0.074745 -0.96849 -0.40575 0.73223 0.63356 -1.3454 0.65114 0.18094 -0.89258 0.014038 1.2608 0.033274 0.95482 0.10567 -1.2537 -0.12249 -0.064954 -0.94037
condition 1.1299 0.60876 -0.30015 -0.1107 0.31055 0.53483 0.22475 0.94398 0.33485 -0.59579 0.82051 -0.16972 -0.18194 -0.21541 0.5425 0.96092 -0.84877 -0.29386 0.72031 0.22703 -0.92959 0.86076 0.088811 -0.23753 0.2739 -1.2965 -0.20384 0.57571 0.5344 1.1071 3.085 -0.42946 0.17199 -0.71223 0.35002 0.04436 1.1242 0.087472 0.56466 0.27573 -0.37281 -0.18889 0.25902 0.42326 0.47736 -0.41208 -0.43603 0.92157 0.43508 0.30165
activities 0.46477 0.29554 -0.97546 0.17221 -0.24979 -0.30498 -0.12355 -0.53853 0.86445 -0.021425 0.082401 0.05002 -0.25148 -0.016073 0.084548 -0.35023 0.52475 0.51743 0.2115 0.075702 1.4415 0.054987 0.19522 0.19182 -0.76863 -1.0331 0.11082 -0.70494 0.30756 0.29765 3.2293 0.37746 -0.6725 -1.451 -0.58413 0.60038 -0.48621 -0.10403 -0.99682 0.90901 -0.64254 -0.78676 0.13379 0.47721 0.56271 -1.2681 -0.45148 0.54255 -0.092682 0.18535
upon 0.32459 0.32709 -0.62981 -0.94166 0.72398 0.13952 -0.091529 0.42154 0.039773 -0.21832 0.38937 0.83668 0.084868 -0.43444 0.074513 0.27454 -0.21004 -0.2498 -0.35615 -0.22551 0.56174 0.21515 0.24922 -0.46244 0.58967 -1.5617 -0.27785 0.046593 0.29505 -0.038291 2.8256 -0.11159 -0.33035 -1.1109 -0.071851 0.046153 0.36235 -0.13789 -0.4736 -0.14881 -0.12886 -0.51061 -0.40474 0.11986 -0.77521 -0.35025 -0.073381 -0.42317 -0.062737 -0.54071
leaving 0.5264 -0.011464 0.44387 -0.44843 0.30806 -0.043403 -0.94691 0.91916 -0.24002 -0.70662 -0.023115 -0.35483 -0.40678 -0.15213 0.60599 0.32951 -0.15587 0.0039442 -0.4532 -0.031355 0.082367 0.54246 0.21988 0.20606 0.038225 -1.381 0.44373 0.44765 0.44504 -0.095164 2.7286 0.30389 0.073042 -0.1803 0.10083 0.33354 0.16941 0.10638 0.38339 -0.28538 -0.33289 -0.14263 0.10039 -0.097564 -0.29996 0.10235 -0.48392 -0.51311 -0.044141 -0.59295
experience 0.35663 0.61973 -0.71631 0.20023 0.2629 0.022202 -0.25861 0.26357 0.2839 0.41427 0.040724 0.13203 -0.29023 -0.20172 0.33643 -0.29397 0.0095604 0.56228 -0.11364 -0.44548 -0.28563 1.0147 -0.21767 0.056146 0.96655 -1.0414 -0.98358 -0.59189 0.60383 0.56588 3.1509 0.86628 0.17036 -1.3524 0.080502 0.51724 -0.6192 0.65536 -0.063525 -0.46372 -0.3681 -0.10436 -0.087543 0.65907 -0.11919 0.10949 0.41743 0.29235 -0.37246 0.76543
= -1.5377 1.8869 1.2745 1.3661 0.38255 -0.086772 1.3353 -0.84042 -0.8163 -0.258 0.068995 0.16935 -0.57455 -0.57583 0.02947 -0.76549 0.54394 -0.6716 -1.5472 0.44699 -1.1218 -1.1254 1.2084 0.42863 -0.41768 0.58862 -0.061888 -0.63938 0.72687 -0.23623 2.5809 0.79495 0.17038 0.62493 -0.29273 -0.16096 1.1693 -1.0354 0.26318 0.55001 1.1703 -0.47919 0.27512 -0.007617 -0.57748 0.55455 0.37664 0.42944 1.1281 0.53025
attorney -0.37196 -0.50656 -0.46389 0.89191 0.60541 0.39711 -0.71621 0.7956 -0.019165 -0.84216 -0.78022 0.41124 -0.46984 -0.7166 0.73034 -0.3973 0.047903 -0.9293 0.55912 -0.48596 0.07864 0.55987 -0.28828 -0.30062 -0.95014 -2.5185 0.3453 -0.33966 -0.75058 -0.54255 1.2497 -1.4883 -0.5929 -1.5496 0.3795 -0.76515 0.050115 -0.14224 1.0061 -0.027171 -0.17438 1.476 0.0070303 0.068586 -0.29605 -0.55932 -0.96985 -0.049543 -0.27292 1.7079
standard -0.84973 0.17368 0.15641 -0.16838 -0.33857 0.2221 0.32682 -1.603 -0.033185 0.053457 0.62906 0.24541 0.15308 -0.002252 -0.26983 0.43572 -0.86976 0.22639 -0.21038 -1.2466 0.31643 -0.17927 -0.3312 0.21309 -0.066828 -1.0069 -0.50394 -0.063977 -0.14655 0.49806 3.4971 -0.55233 -0.029704 0.15865 0.91477 -0.41295 0.90419 -0.11365 -0.30204 -0.27794 0.84143 -0.093403 0.62912 0.78404 -0.44875 0.27335 0.70042 0.46765 0.51134 0.31355
proposed 0.89676 0.35606 -0.021564 -0.019792 -0.65169 0.84105 -0.498 -0.89973 -0.23664 -0.21768 -0.45354 0.22455 0.10883 0.031488 0.050489 0.50777 0.41761 -0.33751 0.32451 -0.35169 0.83029 -0.97268 -0.70352 -0.72033 -0.30777 -1.4573 0.70875 -0.095101 -0.71938 0.194 2.7787 -0.53203 -1.299 -0.38019 0.058175 -0.81465 0.43522 0.057866 -0.53219 0.17806 -0.46303 0.044481 0.16948 -0.036662 -0.69842 0.11189 -0.37708 0.90439 -0.010628 0.3465
intelligence 0.8782 -0.45171 0.96737 0.040347 0.76235 -0.63825 0.18944 -0.26633 0.58874 -0.93608 -0.065201 0.5123 -0.69111 0.52807 -0.71195 -0.2834 -0.34591 0.014351 0.11763 0.59407 0.20703 0.69087 1.0855 -0.83158 -0.35967 -2.3939 -0.88375 -0.417 -0.36717 0.58897 2.4132 -0.74281 -0.3619 -1.9934 0.093133 0.86592 -0.75185 0.19073 -0.54284 -0.0084839 0.57554 0.4475 0.48515 0.054866 0.35842 -0.51698 -0.026014 1.9907 -0.11378 0.30127
giving 0.097055 0.21087 0.17822 -0.33152 0.58994 0.39979 -0.51005 0.36011 0.19315 0.56127 -0.25413 0.028233 0.071628 -0.21901 0.14005 -0.23146 0.13386 -0.61865 0.028993 -0.55777 0.032942 0.21639 0.12896 -0.32385 0.035642 -1.5103 0.14495 -0.17384 0.30914 -0.46946 3.1608 0.82007 -0.37222 -0.22913 0.10672 -0.089373 0.14235 0.23459 -0.29017 -0.48766 0.18618 0.013497 -0.11468 0.46142 -0.30235 -0.088673 -0.44375 0.48949 0.021815 0.057208
hotel 1.6098 1.0294 -0.50544 0.40047 0.38814 -1.5778 -1.2993 0.1155 -0.30262 -0.28827 -0.96581 -0.28284 -0.14596 0.17527 0.44815 0.44039 -0.34833 0.69749 -0.62053 -0.38235 1.3279 1.0659 -1.4544 0.50287 -1.0801 -0.86631 -0.47235 0.83618 -0.061528 -0.35008 2.0078 0.038165 0.13002 0.35539 0.89369 0.0097642 0.48953 -0.30987 0.35756 0.0028215 -0.19241 0.1665 0.60639 0.25088 -0.12004 -0.0096763 -1.1168 -1.2892 0.70028 0.15204
finally 0.16265 -0.37274 -0.022479 -0.50465 0.27456 -0.093199 -0.73615 0.95033 -0.54603 -0.15323 0.30885 0.38841 -1.0035 -0.24557 0.66204 0.35204 -0.18036 -0.31975 -0.64606 -0.013735 0.15385 0.24685 0.3237 -0.26862 0.59594 -1.7178 0.065674 0.0089586 0.53707 -0.43454 2.637 0.11716 -0.61258 -0.2611 -0.16274 -0.12843 0.11482 0.46279 0.25167 -0.62822 -0.24213 -0.52859 -0.40937 -0.34248 -0.59462 0.26461 0.1421 -0.84558 -0.2768 -0.36693
magazine -1.2976 0.78525 0.038565 -0.23477 0.058443 -0.2845 -1.6049 -1.3967 0.60895 -0.17399 -0.11514 0.055368 -0.59534 0.5598 0.91766 -0.90114 -0.69003 0.55018 -0.40337 -0.017181 0.95692 0.55578 0.62778 1.1444 0.036269 -1.2466 -1.8685 0.21404 -0.37611 0.43411 2.3088 -0.96847 0.29131 -0.10256 -1.3648 -0.36793 -0.24301 0.023617 -0.44248 -0.83219 1.3028 -0.40761 -0.31103 -0.13021 0.12904 -0.31545 -0.19752 0.029336 0.30416 0.66612
whom 0.42277 0.29808 0.47075 -0.89967 0.87502 0.70361 -0.9493 0.56447 -1.0811 -0.14366 0.060306 0.34499 -0.019897 -0.57614 0.82924 -0.30208 0.13763 0.068363 0.11608 -0.044059 -0.57823 0.85138 0.66774 0.39661 0.22421 -1.7769 -0.29087 -1.0029 -0.52493 -0.23671 2.0893 0.11614 0.0098968 -0.68153 0.51195 -0.044244 -0.232 0.095472 -0.29722 -0.1082 -0.086958 0.7218 0.2823 0.066235 0.13381 -0.45599 -1.3809 -0.74528 -0.5934 -0.043672
experts 0.86808 -0.43039 0.29733 -0.23517 -0.035733 -0.55875 -0.52479 -0.21474 0.76505 -0.5456 0.14361 -0.35484 0.25237 0.60079 0.66882 0.33194 0.29147 -0.19942 -0.040606 -0.69308 0.18692 0.24377 0.34273 -0.42179 0.40874 -1.7946 -0.83932 -0.42352 -0.86547 0.27225 2.8236 -0.17288 -0.38816 -1.55 -0.028452 0.0082607 -0.2393 0.49844 0.40044 0.16018 -0.80591 0.025431 1.2516 0.55579 1.2968 0.33468 -0.10019 1.7051 -0.07233 -0.22445
